timestamp ba_x ba_y ba_z bg_x bg_y bg_z
2625.636000 0.00000006 -0.00000003 -0.00000005 -0.00021547 -0.00000256 -0.00043524
2625.704000 0.00003768 0.00000571 0.00225918 -0.00019199 -0.00003411 -0.00035837
2625.760000 0.00026211 -0.00003595 0.00888424 -0.00011172 -0.00014357 -0.00015714
2625.828000 0.00028523 -0.00003796 0.00919630 -0.00009054 -0.00014454 -0.00014637
2625.908000 0.00034360 -0.00004568 0.00977831 -0.00008019 -0.00012279 -0.00015240
2625.960000 0.00037394 -0.00004574 0.01000278 -0.00008036 -0.00014005 -0.00016120
2626.036000 0.00044830 -0.00001457 0.01031464 -0.00006566 -0.00012721 -0.00017999
2626.096000 0.00054889 0.00000801 0.01046200 -0.00006086 -0.00011342 -0.00016442
2626.168000 0.00059557 0.00001514 0.01028988 -0.00006630 -0.00012351 -0.00012715
2626.228000 0.00059557 0.00001514 0.01028988 -0.00006630 -0.00012351 -0.00012715
2626.296000 0.00063381 0.00003445 0.01046151 -0.00003988 -0.00014455 -0.00012071
2626.360000 0.00063381 0.00003445 0.01046151 -0.00003988 -0.00014455 -0.00012071
2626.436000 0.00077434 0.00005175 0.01048956 -0.00002703 -0.00019604 -0.00011159
2626.500000 0.00081105 0.00005272 0.01051200 -0.00002085 -0.00020485 -0.00011396
2626.564000 0.00086689 0.00007013 0.01055253 0.00001641 -0.00019813 -0.00012514
2626.632000 0.00092753 0.00006884 0.01038454 0.00003236 -0.00018139 -0.00013098
2626.696000 0.00138554 -0.00042000 0.01005017 0.00002935 -0.00018493 -0.00013404
2626.760000 0.00145805 -0.00049599 0.01005387 0.00003846 -0.00019387 -0.00013578
2626.836000 0.00145805 -0.00049599 0.01005387 0.00003846 -0.00019387 -0.00013578
2626.932000 0.00196853 -0.00098437 0.01007401 0.00001362 -0.00021549 -0.00010109
2627.004000 0.00212220 -0.00105582 0.01015785 0.00000920 -0.00022029 -0.00010477
2627.064000 0.00227983 -0.00110972 0.01029515 0.00001915 -0.00022360 -0.00011526
2627.128000 0.00246269 -0.00116193 0.01049631 0.00002176 -0.00022199 -0.00011848
2627.204000 0.00246269 -0.00116193 0.01049631 0.00002176 -0.00022199 -0.00011848
2627.260000 0.00246269 -0.00116193 0.01049631 0.00002176 -0.00022199 -0.00011848
2627.328000 0.00294579 -0.00115775 0.01082869 0.00003887 -0.00024468 -0.00013040
2627.408000 0.00469086 -0.00100427 0.01104106 0.00003647 -0.00024612 -0.00011166
2627.464000 0.00469086 -0.00100427 0.01104106 0.00003647 -0.00024612 -0.00011166
2627.528000 0.00539128 -0.00097603 0.01106338 0.00003784 -0.00023022 -0.00013044
2627.596000 0.00575189 -0.00090250 0.01117309 0.00004263 -0.00022557 -0.00015580
2627.668000 0.00701435 -0.00086970 0.01100980 0.00003655 -0.00023103 -0.00015837
2627.728000 0.00738833 -0.00088116 0.01092853 0.00004202 -0.00022391 -0.00015755
2627.836000 0.00861319 -0.00093952 0.01078368 0.00003969 -0.00019867 -0.00014848
2627.896000 0.00861319 -0.00093952 0.01078368 0.00003969 -0.00019867 -0.00014848
2627.960000 0.00883703 -0.00096627 0.01068915 0.00004348 -0.00018332 -0.00015501
2628.032000 0.00956306 -0.00113353 0.01046107 0.00005786 -0.00015949 -0.00016130
2628.096000 0.01085748 -0.00122372 0.01048724 0.00006150 -0.00014851 -0.00016396
2628.164000 0.01141707 -0.00137760 0.01027666 0.00005552 -0.00016726 -0.00017061
2628.228000 0.01160326 -0.00146586 0.01015073 0.00005435 -0.00017336 -0.00018027
2628.300000 0.01203900 -0.00175283 0.00989732 0.00005330 -0.00017199 -0.00017597
2628.360000 0.01304919 -0.00312093 0.00972120 0.00006155 -0.00016035 -0.00017306
2628.468000 0.01387182 -0.00536859 0.00928940 0.00006601 -0.00014731 -0.00016241
2628.536000 0.01458726 -0.00735731 0.00933989 0.00007322 -0.00014546 -0.00015017
2628.596000 0.01478071 -0.00931086 0.00924366 0.00007594 -0.00015480 -0.00014889
2628.660000 0.01522244 -0.01168533 0.00911464 0.00007094 -0.00017125 -0.00015783
2628.728000 0.01503338 -0.01499886 0.00879282 0.00007730 -0.00017190 -0.00014961
2628.796000 0.01439362 -0.01772684 0.00875197 0.00007870 -0.00017163 -0.00013787
2628.856000 0.01385899 -0.01997182 0.00875499 0.00006660 -0.00017288 -0.00013678
2628.932000 0.01183482 -0.02381993 0.00839369 0.00006230 -0.00017478 -0.00013510
2628.996000 0.01017345 -0.02681127 0.00855623 0.00005878 -0.00017366 -0.00013003
2629.060000 0.00799202 -0.03045074 0.00836661 0.00005704 -0.00017790 -0.00012648
2629.132000 0.00530285 -0.03452165 0.00809021 0.00005591 -0.00019234 -0.00011760
2629.200000 0.00201628 -0.03925175 0.00800305 0.00005676 -0.00019970 -0.00012140
2629.300000 -0.00264142 -0.04541028 0.00768269 0.00006172 -0.00019143 -0.00013366
2629.364000 -0.00681408 -0.04951534 0.00817765 0.00006902 -0.00018036 -0.00013583
2629.464000 -0.01258684 -0.05618450 0.00753971 0.00008289 -0.00017867 -0.00012849
2629.564000 -0.01907582 -0.06506786 0.00736930 0.00009659 -0.00017302 -0.00012018
2629.628000 -0.02033579 -0.06650984 0.00809211 0.00009933 -0.00016776 -0.00011895
2629.696000 -0.02504604 -0.07250095 0.00804056 0.00010455 -0.00016838 -0.00010659
2629.764000 -0.02608403 -0.07397829 0.00828187 0.00009442 -0.00016523 -0.00009948
2629.836000 -0.03142695 -0.08078116 0.00802079 0.00009307 -0.00016560 -0.00009763
2629.900000 -0.03570861 -0.08537897 0.00824372 0.00009057 -0.00015502 -0.00009507
2629.968000 -0.04189058 -0.09135090 0.00836644 0.00008223 -0.00015460 -0.00008876
2630.036000 -0.04487269 -0.09391829 0.00876876 0.00007623 -0.00015619 -0.00010138
2630.100000 -0.04569474 -0.09466409 0.00939698 0.00007156 -0.00014439 -0.00011617
2630.160000 -0.04656742 -0.09513637 0.00967531 0.00007340 -0.00014806 -0.00012031
2630.236000 -0.05090165 -0.09836143 0.00961497 0.00007392 -0.00015421 -0.00011722
2630.300000 -0.05497062 -0.10015746 0.00993328 0.00007728 -0.00015507 -0.00012278
2630.360000 -0.05947212 -0.10155221 0.01014844 0.00008740 -0.00015676 -0.00012307
2630.432000 -0.06438274 -0.10423029 0.01016283 0.00008909 -0.00015563 -0.00012889
2630.564000 -0.07256499 -0.10850020 0.01002167 0.00009378 -0.00015420 -0.00012611
2630.632000 -0.07792676 -0.10986113 0.01075046 0.00008439 -0.00014827 -0.00012389
2630.704000 -0.08281648 -0.11098193 0.01089975 0.00008442 -0.00014532 -0.00012505
2630.800000 -0.08940393 -0.11210214 0.01111398 0.00008660 -0.00014553 -0.00012503
2630.864000 -0.09400864 -0.11259024 0.01141960 0.00008308 -0.00014729 -0.00012308
2630.932000 -0.09729819 -0.11323366 0.01158353 0.00008097 -0.00015029 -0.00011465
2631.000000 -0.10377817 -0.11267959 0.01170304 0.00009011 -0.00014897 -0.00011150
2631.060000 -0.10971158 -0.11280568 0.01187587 0.00008617 -0.00014167 -0.00011420
2631.132000 -0.11737385 -0.11196955 0.01217648 0.00008690 -0.00013852 -0.00011823
2631.200000 -0.12457398 -0.11145719 0.01242876 0.00008594 -0.00013871 -0.00012199
2631.264000 -0.13043157 -0.11133584 0.01261799 0.00007885 -0.00013560 -0.00012254
2631.328000 -0.13770767 -0.10988264 0.01293518 0.00008369 -0.00013647 -0.00012283
2631.392000 -0.14393545 -0.10871663 0.01321211 0.00008826 -0.00014199 -0.00011550
2631.460000 -0.15121649 -0.10743389 0.01344877 0.00009347 -0.00014342 -0.00010741
2631.568000 -0.16266933 -0.10761358 0.01374592 0.00009873 -0.00014172 -0.00010733
2631.632000 -0.16942778 -0.10626921 0.01408304 0.00009122 -0.00014494 -0.00010243
2631.700000 -0.17699071 -0.10571889 0.01435268 0.00009165 -0.00015321 -0.00009903
2631.760000 -0.18374502 -0.10491938 0.01465835 0.00009101 -0.00015926 -0.00010261
2631.832000 -0.19234538 -0.10454764 0.01494254 0.00009376 -0.00015905 -0.00010199
2631.936000 -0.20400160 -0.10691892 0.01528664 0.00009541 -0.00015581 -0.00010567
2631.996000 -0.21327800 -0.10599414 0.01578337 0.00009398 -0.00015470 -0.00011150
2632.064000 -0.21993300 -0.10629546 0.01624322 0.00009475 -0.00015790 -0.00011342
2632.128000 -0.22708982 -0.10605799 0.01643023 0.00009637 -0.00015771 -0.00011045
2632.196000 -0.23735119 -0.10554695 0.01690761 0.00009210 -0.00015171 -0.00010669
2632.264000 -0.24723007 -0.10509529 0.01736422 0.00008352 -0.00015103 -0.00010950
2632.368000 -0.25961120 -0.10467071 0.01786137 0.00008478 -0.00014839 -0.00010720
2632.432000 -0.26763939 -0.10257472 0.01843759 0.00007514 -0.00015131 -0.00010232
2632.532000 -0.28230714 -0.10381578 0.01905446 0.00007875 -0.00015822 -0.00010210
2632.600000 -0.29248958 -0.10267861 0.01957006 0.00007471 -0.00015741 -0.00010174
2632.704000 -0.30722123 -0.10168161 0.02041941 0.00007830 -0.00015342 -0.00009845
2632.764000 -0.31727932 -0.10014434 0.02094799 0.00007112 -0.00014994 -0.00010513
2632.828000 -0.32889318 -0.09811638 0.02157982 0.00008478 -0.00015144 -0.00009933
2632.900000 -0.33913974 -0.09658558 0.02222286 0.00008840 -0.00014960 -0.00009819
2632.964000 -0.34967102 -0.09276545 0.02273355 0.00009247 -0.00014792 -0.00009603
2633.036000 -0.36098015 -0.08900600 0.02346169 0.00009366 -0.00014560 -0.00008906
2633.132000 -0.37553563 -0.08636583 0.02428398 0.00009502 -0.00014484 -0.00008217
2633.200000 -0.38642551 -0.08349128 0.02496772 0.00009185 -0.00014585 -0.00007343
2633.264000 -0.39878278 -0.08245125 0.02563119 0.00009479 -0.00014714 -0.00007317
2633.328000 -0.40967403 -0.07921396 0.02637093 0.00009066 -0.00014667 -0.00007540
2633.432000 -0.42716645 -0.07901337 0.02746061 0.00009714 -0.00014839 -0.00007501
2633.504000 -0.44099446 -0.07685732 0.02842834 0.00009471 -0.00014729 -0.00007559
2633.560000 -0.45374439 -0.07395312 0.02923556 0.00009354 -0.00014946 -0.00007589
2633.668000 -0.47150989 -0.07266634 0.03055472 0.00009312 -0.00015124 -0.00007750
2633.732000 -0.48352673 -0.06975802 0.03131319 0.00008542 -0.00014919 -0.00008061
2633.844000 -0.50259242 -0.07033330 0.03276663 0.00009505 -0.00014197 -0.00008135
2633.904000 -0.51355204 -0.06878709 0.03352548 0.00008849 -0.00013799 -0.00007764
2634.000000 -0.53015579 -0.06929075 0.03485986 0.00009039 -0.00014100 -0.00006992
2634.064000 -0.53967059 -0.06848786 0.03558671 0.00008856 -0.00014323 -0.00006599
2634.160000 -0.55700859 -0.07167506 0.03695230 0.00009380 -0.00013796 -0.00006900
2634.236000 -0.57176459 -0.07075605 0.03807573 0.00009008 -0.00012959 -0.00007191
2634.300000 -0.58399757 -0.07088752 0.03904797 0.00008864 -0.00011975 -0.00007593
2634.400000 -0.60371038 -0.07489300 0.04070942 0.00009707 -0.00012320 -0.00007185
2634.460000 -0.61436964 -0.07562093 0.04172967 0.00009035 -0.00013117 -0.00006884
2634.532000 -0.63014992 -0.07438511 0.04301024 0.00009353 -0.00013354 -0.00006475
2634.608000 -0.64261802 -0.07741842 0.04423209 0.00009001 -0.00012976 -0.00006585
2634.660000 -0.65473947 -0.07604994 0.04526878 0.00009136 -0.00013007 -0.00006877
2634.736000 -0.67170076 -0.07817807 0.04677025 0.00008977 -0.00012405 -0.00006951
2634.832000 -0.69264166 -0.08688150 0.04873189 0.00009395 -0.00011905 -0.00006640
2634.896000 -0.70530809 -0.08754618 0.05008431 0.00009756 -0.00012270 -0.00006574
2634.964000 -0.72284189 -0.09257148 0.05177081 0.00009797 -0.00012187 -0.00006545
2635.028000 -0.73738777 -0.09713338 0.05323676 0.00009360 -0.00011970 -0.00006626
2635.100000 -0.75018076 -0.10082225 0.05458935 0.00009172 -0.00011352 -0.00006887
2635.160000 -0.76354779 -0.10253908 0.05593866 0.00009932 -0.00011263 -0.00006798
2635.228000 -0.77542404 -0.10544021 0.05717766 0.00009948 -0.00011491 -0.00006746
2635.300000 -0.79114141 -0.11263069 0.05884294 0.00009760 -0.00011256 -0.00006479
2635.360000 -0.80460636 -0.11314135 0.06035922 0.00009346 -0.00011389 -0.00005803
2635.432000 -0.81790353 -0.11997335 0.06190658 0.00009277 -0.00011545 -0.00005447
2635.496000 -0.83312319 -0.12650928 0.06358798 0.00009686 -0.00012022 -0.00005174
2635.568000 -0.84694157 -0.13015601 0.06520674 0.00009400 -0.00011863 -0.00004953
2635.632000 -0.84694163 -0.13015597 0.06520675 0.00117636 0.00061600 0.00098014
2635.732000 -0.84694159 -0.13015597 0.06520674 -0.00065276 -0.00082408 -0.00045707
2635.796000 -0.84694159 -0.13015597 0.06520674 -0.00056711 -0.00031287 0.00029147
2635.860000 -0.84694159 -0.13015597 0.06520674 -0.00039393 -0.00168812 0.00027504
2635.932000 -0.84694159 -0.13015597 0.06520674 0.00080630 0.00017027 0.00023998
2635.996000 -0.84694159 -0.13015597 0.06520675 0.00014155 -0.00103031 -0.00029326
2636.064000 -0.84694159 -0.13015599 0.06520674 -0.00032910 0.00090419 -0.00016374
2636.136000 -0.84694159 -0.13015598 0.06520674 0.00029101 0.00062967 0.00065667
2636.196000 -0.84694158 -0.13015598 0.06520674 0.00118122 0.00056134 0.00100521
2636.268000 -0.84694158 -0.13015598 0.06520674 0.00043238 -0.00021708 0.00071972
2636.364000 -0.84694158 -0.13015598 0.06520674 0.00028277 -0.00154416 -0.00000924
2636.432000 -0.84694158 -0.13015598 0.06520674 0.00008225 0.00018284 -0.00073514
2636.496000 -0.84694157 -0.13015600 0.06520673 0.00137601 0.00087931 -0.00088966
2636.564000 -0.84694154 -0.13015602 0.06520673 -0.00011405 -0.00151293 0.00017151
2636.664000 -0.84694152 -0.13015603 0.06520672 0.00081818 -0.00066071 0.00064780
2636.732000 -0.84694154 -0.13015603 0.06520672 -0.00054150 -0.00012853 -0.00079399
2636.800000 -0.84694152 -0.13015603 0.06520671 0.00031196 -0.00124502 0.00037955
2636.864000 -0.84694151 -0.13015603 0.06520670 0.00006371 -0.00140405 0.00137839
2636.928000 -0.84694150 -0.13015602 0.06520670 -0.00092286 0.00090096 -0.00164454
2637.004000 -0.84694149 -0.13015604 0.06520670 -0.00035175 0.00041258 -0.00046227
2637.060000 -0.84694149 -0.13015604 0.06520670 0.00110279 0.00130648 -0.00079771
2637.132000 -0.84694147 -0.13015604 0.06520669 -0.00064344 0.00015660 0.00026656
2637.200000 -0.84694146 -0.13015604 0.06520669 0.00142823 -0.00106670 -0.00043486
2637.260000 -0.84694146 -0.13015604 0.06520669 -0.00078699 -0.00000153 -0.00092567
2637.332000 -0.84694147 -0.13015606 0.06520669 0.00024166 0.00017403 0.00001341
2637.436000 -0.84694147 -0.13015606 0.06520669 -0.00042024 0.00036637 -0.00037535
2637.500000 -0.84694146 -0.13015606 0.06520668 0.00093054 -0.00023080 0.00110211
2637.564000 -0.84694145 -0.13015608 0.06520668 -0.00108500 -0.00119301 0.00005761
2637.628000 -0.84694145 -0.13015607 0.06520669 0.00192405 -0.00028580 -0.00018540
2637.704000 -0.84694145 -0.13015607 0.06520669 0.00039965 -0.00021488 -0.00041313
2637.768000 -0.84694144 -0.13015606 0.06520669 0.00003014 -0.00075293 0.00090806
2637.836000 -0.84694145 -0.13015606 0.06520669 0.00019928 -0.00054545 0.00016182
2637.900000 -0.84694142 -0.13015605 0.06520668 -0.00060494 -0.00064050 0.00027187
2637.968000 -0.84694143 -0.13015605 0.06520668 0.00044554 0.00042117 -0.00033632
2638.028000 -0.84694141 -0.13015605 0.06520668 -0.00011907 -0.00117262 0.00106994
2638.100000 -0.84694140 -0.13015606 0.06520667 0.00006674 0.00049397 -0.00145832
2638.160000 -0.84694140 -0.13015606 0.06520667 -0.00049945 -0.00094931 0.00070555
2638.268000 -0.84694141 -0.13015606 0.06520667 0.00065257 0.00092204 0.00028105
2638.332000 -0.84694141 -0.13015606 0.06520668 0.00055786 -0.00039606 -0.00069947
2638.400000 -0.84694140 -0.13015605 0.06520668 -0.00173491 0.00014114 -0.00151602
2638.464000 -0.84694142 -0.13015604 0.06520668 0.00059349 0.00030859 0.00201046
2638.532000 -0.84694145 -0.13015604 0.06520669 -0.00005178 -0.00045495 0.00010352
2638.600000 -0.84694145 -0.13015604 0.06520669 0.00063083 -0.00093619 0.00135535
2638.664000 -0.84694140 -0.13015607 0.06520668 -0.00003337 0.00078279 0.00114138
2638.732000 -0.84694146 -0.13015604 0.06520670 -0.00096846 -0.00033041 -0.00018578
2638.800000 -0.84694148 -0.13015603 0.06520671 0.00036316 -0.00097047 0.00040675
2638.864000 -0.84694149 -0.13015603 0.06520671 0.00033925 0.00047070 -0.00039158
2638.928000 -0.84694149 -0.13015603 0.06520671 -0.00169225 0.00028630 -0.00071811
2639.000000 -0.84694148 -0.13015603 0.06520671 -0.00047469 0.00029110 -0.00058824
2639.064000 -0.84694140 -0.13015606 0.06520668 0.00026666 -0.00086119 0.00032692
2639.164000 -0.84694136 -0.13015609 0.06520667 0.00047766 0.00017972 -0.00018040
2639.232000 -0.84694137 -0.13015609 0.06520667 -0.00055450 0.00015544 -0.00003298
2639.296000 -0.84694138 -0.13015608 0.06520667 0.00042273 0.00012154 -0.00032886
2639.368000 -0.84694138 -0.13015608 0.06520667 -0.00050663 -0.00260527 0.00016789
2639.428000 -0.84694138 -0.13015607 0.06520667 0.00084839 0.00066772 -0.00081261
2639.500000 -0.84694139 -0.13015607 0.06520667 -0.00042021 0.00065121 -0.00010554
2639.564000 -0.84694140 -0.13015606 0.06520668 -0.00002215 -0.00012524 0.00046426
2639.664000 -0.84694140 -0.13015606 0.06520668 -0.00064866 -0.00056000 -0.00092926
2639.732000 -0.84694140 -0.13015606 0.06520668 0.00013198 -0.00093583 0.00050767
2639.804000 -0.84694140 -0.13015606 0.06520668 -0.00051549 0.00003909 -0.00021806
2639.864000 -0.84694140 -0.13015606 0.06520668 0.00109194 -0.00139758 0.00005523
2639.928000 -0.84694141 -0.13015609 0.06520668 -0.00008632 0.00102871 -0.00080846
2640.000000 -0.84694140 -0.13015608 0.06520668 -0.00016404 0.00024761 -0.00052044
2640.064000 -0.84694139 -0.13015609 0.06520668 -0.00023092 0.00099760 -0.00066994
2640.136000 -0.84694139 -0.13015609 0.06520668 -0.00026701 -0.00060109 0.00063528
2640.204000 -0.84694138 -0.13015608 0.06520668 -0.00096662 0.00023097 0.00026538
2640.264000 -0.84694137 -0.13015608 0.06520667 0.00046169 0.00082443 -0.00093511
2640.332000 -0.84694137 -0.13015608 0.06520667 -0.00093066 0.00112053 0.00062065
2640.392000 -0.84694139 -0.13015608 0.06520669 -0.00009596 -0.00069325 -0.00009702
2640.460000 -0.84694139 -0.13015608 0.06520668 0.00122139 -0.00132866 -0.00072525
2640.528000 -0.84694141 -0.13015609 0.06520669 -0.00027616 0.00053624 0.00012077
2640.600000 -0.84694141 -0.13015609 0.06520669 -0.00017521 0.00012681 -0.00075041
2640.664000 -0.84694141 -0.13015609 0.06520669 -0.00065056 0.00006483 -0.00108196
2640.732000 -0.84694140 -0.13015610 0.06520669 -0.00041012 -0.00162040 0.00021783
2640.796000 -0.84694140 -0.13015609 0.06520669 0.00110657 0.00069215 0.00044080
2640.864000 -0.84694142 -0.13015608 0.06520669 -0.00074474 -0.00028625 -0.00055041
2640.936000 -0.84694139 -0.13015609 0.06520668 -0.00053272 0.00064653 0.00002040
2641.000000 -0.84694139 -0.13015607 0.06520668 0.00015880 -0.00111674 0.00039167
2641.060000 -0.84694140 -0.13015607 0.06520668 0.00105524 -0.00005209 0.00039123
2641.128000 -0.84694139 -0.13015607 0.06520668 -0.00008464 0.00133235 -0.00065110
2641.200000 -0.84694142 -0.13015606 0.06520669 0.00067922 -0.00039313 0.00001761
2641.304000 -0.84694143 -0.13015606 0.06520669 -0.00067599 -0.00021490 -0.00015765
2641.368000 -0.84694143 -0.13015605 0.06520669 -0.00066932 -0.00038161 -0.00001892
2641.428000 -0.84694144 -0.13015606 0.06520669 0.00056751 0.00017472 0.00076085
2641.496000 -0.84694144 -0.13015604 0.06520669 0.00123912 -0.00054409 0.00069859
2641.564000 -0.84694144 -0.13015605 0.06520669 0.00094214 0.00079969 -0.00093089
2641.636000 -0.84694144 -0.13015606 0.06520669 -0.00058843 0.00096985 -0.00034110
2641.704000 -0.84694142 -0.13015606 0.06520669 0.00089365 -0.00071463 -0.00012050
2641.760000 -0.84694143 -0.13015606 0.06520669 -0.00016542 0.00134064 -0.00077381
2641.828000 -0.84694142 -0.13015606 0.06520669 0.00011166 0.00054328 0.00011175
2641.900000 -0.84694143 -0.13015607 0.06520669 0.00228946 -0.00022797 0.00085157
2641.960000 -0.84694143 -0.13015607 0.06520669 -0.00058019 0.00109196 -0.00156152
2642.032000 -0.84694143 -0.13015607 0.06520669 -0.00046066 -0.00034507 0.00100530
2642.100000 -0.84694144 -0.13015607 0.06520669 0.00064604 0.00086158 0.00078221
2642.160000 -0.84694146 -0.13015607 0.06520670 0.00001662 -0.00110582 0.00120528
2642.264000 -0.84694147 -0.13015606 0.06520671 -0.00042782 0.00061454 0.00013870
2642.328000 -0.84694146 -0.13015606 0.06520671 0.00015068 0.00013961 0.00091713
2642.432000 -0.84694145 -0.13015606 0.06520671 -0.00052631 -0.00038764 0.00055516
2642.532000 -0.84694144 -0.13015607 0.06520671 0.00122219 -0.00034546 0.00004695
2642.600000 -0.84694145 -0.13015607 0.06520671 -0.00100528 0.00063777 -0.00019952
2642.664000 -0.84694145 -0.13015608 0.06520670 0.00049869 -0.00064234 -0.00022815
2642.732000 -0.84694146 -0.13015607 0.06520671 -0.00247337 -0.00177296 -0.00025103
2642.800000 -0.84694146 -0.13015607 0.06520671 -0.00095777 -0.00022997 0.00080805
2642.860000 -0.84694142 -0.13015610 0.06520670 -0.00001331 0.00072232 0.00038426
2642.936000 -0.84694142 -0.13015610 0.06520670 0.00029699 0.00014094 0.00017336
2642.996000 -0.84694142 -0.13015611 0.06520670 -0.00113165 0.00050565 -0.00029824
2643.064000 -0.84694136 -0.13015612 0.06520668 0.00129960 -0.00161277 -0.00016866
2643.124000 -0.84694133 -0.13015616 0.06520667 -0.00040694 0.00017726 0.00055196
2643.228000 -0.84694132 -0.13015615 0.06520667 0.00058594 -0.00120523 0.00014349
2643.336000 -0.84694132 -0.13015616 0.06520667 -0.00025715 0.00101996 -0.00057168
2643.400000 -0.84694133 -0.13015614 0.06520667 0.00015373 -0.00025806 0.00051304
2643.460000 -0.84694133 -0.13015615 0.06520667 -0.00139380 0.00018690 0.00024460
2643.528000 -0.84694133 -0.13015615 0.06520667 -0.00034584 0.00186545 -0.00041655
2643.596000 -0.84694133 -0.13015615 0.06520668 0.00108958 0.00024379 0.00006534
2643.660000 -0.84694134 -0.13015615 0.06520668 0.00049600 0.00079286 0.00016881
2643.728000 -0.84694134 -0.13015616 0.06520668 -0.00096691 0.00173238 0.00032299
2643.796000 -0.84694136 -0.13015616 0.06520669 0.00076832 -0.00020729 0.00026365
2643.864000 -0.84694136 -0.13015615 0.06520668 -0.00024062 0.00039263 -0.00087927
2643.932000 -0.84694136 -0.13015615 0.06520669 0.00074410 0.00029532 0.00094694
2643.996000 -0.84694137 -0.13015615 0.06520669 0.00129817 0.00011856 0.00089199
2644.068000 -0.84694138 -0.13015614 0.06520669 0.00016825 -0.00014850 0.00074199
2644.136000 -0.84694139 -0.13015614 0.06520670 0.00098032 0.00150572 0.00032180
2644.200000 -0.84694140 -0.13015614 0.06520670 -0.00019612 -0.00012741 0.00104983
2644.332000 -0.84694139 -0.13015613 0.06520670 0.00071099 -0.00015021 -0.00022319
2644.396000 -0.84694139 -0.13015613 0.06520670 0.00025072 -0.00124977 -0.00049795
2644.464000 -0.84694137 -0.13015613 0.06520669 -0.00025849 -0.00001173 -0.00051453
2644.532000 -0.84694138 -0.13015612 0.06520669 -0.00013812 0.00054709 -0.00045727
2644.600000 -0.84694138 -0.13015612 0.06520669 0.00069914 -0.00065321 -0.00078191
2644.660000 -0.84694138 -0.13015612 0.06520669 -0.00053785 0.00074921 -0.00057946
2644.732000 -0.84694138 -0.13015612 0.06520669 -0.00078911 0.00105400 0.00025821
2644.804000 -0.84694138 -0.13015612 0.06520669 0.00000615 -0.00004348 0.00093095
2644.936000 -0.84694135 -0.13015612 0.06520668 0.00017491 0.00030951 -0.00000395
2645.000000 -0.84694135 -0.13015612 0.06520668 0.00031220 0.00168289 -0.00095736
2645.060000 -0.84694136 -0.13015611 0.06520669 -0.00071820 -0.00107631 -0.00001803
2645.128000 -0.84694137 -0.13015614 0.06520668 -0.00037458 0.00024842 -0.00073282
2645.196000 -0.84694138 -0.13015613 0.06520668 0.00097360 -0.00015439 -0.00000113
2645.264000 -0.84694138 -0.13015613 0.06520669 -0.00109296 0.00085445 0.00045914
2645.364000 -0.84694137 -0.13015613 0.06520668 -0.00118375 0.00024116 0.00085059
2645.428000 -0.84694136 -0.13015613 0.06520667 0.00058622 -0.00069600 0.00053873
2645.528000 -0.84694135 -0.13015614 0.06520667 0.00018274 -0.00014836 -0.00030483
2645.632000 -0.84694135 -0.13015614 0.06520667 -0.00087123 -0.00034848 -0.00074918
2645.700000 -0.84694136 -0.13015614 0.06520667 -0.00024437 0.00018385 0.00018162
2645.764000 -0.84694137 -0.13015615 0.06520667 0.00052696 0.00077773 -0.00027308
2645.828000 -0.84694138 -0.13015613 0.06520668 0.00060337 -0.00080101 -0.00081968
2645.896000 -0.84694138 -0.13015613 0.06520668 -0.00038931 0.00007830 -0.00172858
2645.956000 -0.84694138 -0.13015615 0.06520668 0.00157603 0.00081212 -0.00008010
2646.032000 -0.84694137 -0.13015614 0.06520668 -0.00070927 -0.00026163 -0.00043373
2646.096000 -0.84694140 -0.13015613 0.06520669 -0.00034207 0.00002358 -0.00019508
2646.164000 -0.84694140 -0.13015613 0.06520669 -0.00037660 0.00056717 -0.00123793
2646.228000 -0.84694142 -0.13015613 0.06520670 0.00035444 0.00075564 0.00137355
2646.296000 -0.84694143 -0.13015614 0.06520671 0.00032549 0.00021534 -0.00100918
2646.364000 -0.84694144 -0.13015614 0.06520671 0.00047655 -0.00089923 -0.00036657
2646.436000 -0.84694144 -0.13015615 0.06520671 0.00075253 -0.00014295 -0.00042434
2646.500000 -0.84694144 -0.13015616 0.06520671 0.00000593 -0.00022738 0.00020363
2646.564000 -0.84694144 -0.13015616 0.06520671 -0.00020901 0.00033608 0.00036934
2646.628000 -0.84694144 -0.13015616 0.06520671 -0.00055048 0.00006925 -0.00064942
2646.800000 -0.84694144 -0.13015616 0.06520671 0.00026631 0.00056081 0.00035813
2646.864000 -0.84694144 -0.13015616 0.06520671 -0.00230673 0.00062707 -0.00106357
2646.932000 -0.84694144 -0.13015617 0.06520671 0.00075086 -0.00072393 0.00058047
2646.996000 -0.84694144 -0.13015617 0.06520671 0.00046740 0.00063489 0.00000209
2647.060000 -0.84694143 -0.13015617 0.06520670 -0.00060848 0.00127319 -0.00068360
2647.168000 -0.84694142 -0.13015617 0.06520670 -0.00021275 -0.00046559 0.00030434
2647.228000 -0.84694142 -0.13015617 0.06520670 -0.00032160 -0.00050009 0.00002119
2647.300000 -0.84694141 -0.13015617 0.06520669 -0.00193946 0.00070998 -0.00039642
2647.364000 -0.84694141 -0.13015616 0.06520670 0.00065966 -0.00021618 -0.00037636
2647.428000 -0.84694141 -0.13015617 0.06520670 -0.00074245 0.00060808 0.00029367
2647.500000 -0.84694144 -0.13015615 0.06520671 0.00031297 0.00021621 0.00010534
2647.556000 -0.84694144 -0.13015615 0.06520670 0.00099600 0.00071127 -0.00070415
2647.636000 -0.84694142 -0.13015616 0.06520670 -0.00039210 0.00100564 -0.00044465
2647.700000 -0.84694142 -0.13015616 0.06520670 0.00184295 0.00026014 0.00022553
2647.796000 -0.84694143 -0.13015616 0.06520670 0.00067412 -0.00011233 -0.00018358
2647.864000 -0.84694145 -0.13015616 0.06520671 0.00060629 -0.00028453 0.00028142
2647.936000 -0.84694145 -0.13015616 0.06520671 -0.00085870 0.00023233 0.00034878
2648.036000 -0.84694145 -0.13015616 0.06520671 -0.00051555 0.00073373 0.00054537
2648.100000 -0.84694144 -0.13015616 0.06520671 0.00013233 -0.00047747 0.00026422
2648.164000 -0.84694144 -0.13015617 0.06520671 -0.00210212 0.00017145 -0.00065498
2648.232000 -0.84694143 -0.13015617 0.06520671 -0.00022360 0.00063862 0.00037541
2648.296000 -0.84694142 -0.13015617 0.06520670 0.00006259 -0.00129991 0.00069485
2648.364000 -0.84694142 -0.13015617 0.06520670 0.00120512 0.00074163 -0.00015522
2648.432000 -0.84694142 -0.13015618 0.06520670 -0.00094083 -0.00030695 0.00021800
2648.500000 -0.84694142 -0.13015617 0.06520670 0.00066778 0.00004688 0.00038765
2648.564000 -0.84694141 -0.13015617 0.06520671 -0.00097173 -0.00156289 0.00078134
2648.628000 -0.84694146 -0.13015618 0.06520672 0.00116062 0.00050039 -0.00057088
2648.704000 -0.84694146 -0.13015618 0.06520672 -0.00043501 0.00030157 -0.00026876
2648.760000 -0.84694146 -0.13015618 0.06520672 -0.00016537 0.00184195 -0.00127998
2648.836000 -0.84694145 -0.13015618 0.06520672 -0.00129339 -0.00074369 0.00005921
2648.900000 -0.84694145 -0.13015618 0.06520672 0.00094596 -0.00044752 0.00068782
2648.964000 -0.84694145 -0.13015619 0.06520672 -0.00038910 -0.00085672 0.00097165
2649.028000 -0.84694145 -0.13015619 0.06520672 -0.00024376 0.00009964 0.00092018
2649.100000 -0.84694143 -0.13015619 0.06520671 0.00009354 0.00111446 0.00168120
2649.156000 -0.84694140 -0.13015618 0.06520670 0.00036599 -0.00030025 -0.00015485
2649.236000 -0.84694134 -0.13015613 0.06520669 0.00199552 -0.00153439 0.00051608
2649.296000 -0.84694132 -0.13015613 0.06520669 0.02511778 -0.08534274 -0.00632524
2649.404000 -0.84694115 -0.13015612 0.06520672 -0.00282692 -0.23524546 0.00517032
2649.456000 -0.84694129 -0.13015608 0.06520702 0.02340951 -0.15148399 -0.00314083
2649.536000 -0.76783475 -0.08106588 -0.63518202 0.02865148 -0.01378422 -0.00025139
2649.604000 -4.30250346 0.49550676 0.60232480 -0.00105618 0.11380343 -0.00392245
2649.664000 -3.01314938 1.13056118 -1.51220093 -0.00443695 0.14177741 0.00408455
2649.732000 -1.27044658 0.99997431 -1.94737708 -0.01095507 0.16823216 -0.00141711
2649.796000 -0.37176801 1.20015910 -3.11110715 -0.01431846 0.16300023 -0.00049767
2649.904000 0.21811690 0.91747272 -3.46452345 -0.01659483 0.16535232 0.00030247
2650.000000 0.82386768 0.65699717 -3.61924993 -0.01662105 0.16496299 0.00045615
2650.064000 0.72460101 1.02431952 -3.49379900 -0.01495820 0.16582353 -0.00084566
2650.128000 1.07270547 0.96234590 -3.54976034 -0.01487933 0.16388293 -0.00029487
2650.196000 1.03911079 0.76652000 -3.49366249 -0.00475011 0.00930359 0.00300369
2650.268000 1.06496966 0.32562693 -3.54678191 -0.01281073 0.00237260 0.00098581
2650.336000 0.70448281 0.63862936 -3.33821389 -0.01140526 0.00199612 0.00621553
2650.400000 0.53488404 0.67855856 -3.20710308 -0.01200642 0.00034122 0.00607171
2650.464000 0.50705697 0.79624477 -2.92190008 -0.00957917 -0.00081002 0.00465089
2650.532000 0.65329217 0.40988541 -3.08925879 -0.01270128 -0.00171637 0.00249383
2650.628000 0.41398691 0.61945584 -3.07218632 -0.00932782 0.00256777 0.00668626
2650.768000 -0.20406403 1.11624572 -2.42651743 -0.00981310 0.00403840 0.00259473
2650.832000 -0.11886742 0.71389619 0.05240353 -0.00357277 0.01874465 -0.00177927
2650.896000 0.20233828 0.42931722 -0.00617552 -0.00362247 0.01209741 0.00126413
2650.996000 0.36263539 0.40630713 0.07851394 -0.00763546 0.01403197 0.00143034
2651.064000 0.41125240 0.31471206 0.08549009 -0.00970720 0.01747003 0.00126873
2651.132000 0.44998476 0.27795336 0.07518084 -0.00690594 0.01825390 0.00134129
2651.232000 0.54093428 0.29222240 0.06587194 -0.00253288 0.01825946 0.00112668
2651.332000 0.55254150 0.30808548 0.08431011 -0.00165013 0.01915113 0.00095504
2651.396000 0.55691350 0.31530519 0.09666808 -0.00160906 0.01928969 0.00095992
2651.460000 0.48851439 0.36747354 0.12194918 -0.00193269 0.01835773 0.00100947
2651.524000 0.35410388 0.38320962 0.14024030 -0.00266405 0.01686510 0.00088731
2651.632000 0.04580579 0.36794629 0.05522446 -0.00239004 0.00781628 -0.00018350
2651.728000 -0.14959827 0.30209445 0.00019770 -0.00239217 0.00615868 -0.00028480
2651.828000 -0.21328672 0.24674013 -0.01324941 -0.00222824 0.00548247 -0.00022656
2651.904000 -0.17055401 0.31939644 -0.01606950 -0.00227769 0.00436795 -0.00084022
2651.964000 -0.16418748 0.31888906 -0.02038050 -0.00215010 0.00438203 -0.00099531
2652.032000 -0.11083393 0.33077742 -0.02331621 -0.00216707 0.00394566 -0.00115802
2652.096000 -0.10661231 0.32701790 -0.02301083 -0.00222981 0.00423373 -0.00115098
2652.164000 0.00086791 0.37378127 -0.01249948 -0.00236145 0.00378458 -0.00147602
2652.232000 -0.00237776 0.34629220 -0.01403971 -0.00227363 0.00394917 -0.00129333
2652.336000 0.14909006 0.40510728 0.01879709 -0.00236873 0.00359612 -0.00155797
2652.396000 0.22608084 0.42125165 0.02363218 -0.00223976 0.00324473 -0.00167241
2652.460000 0.36812984 0.42491412 0.04812977 -0.00202018 0.00263677 -0.00169008
2652.560000 0.39973444 0.42266114 0.05015579 -0.00189877 0.00226748 -0.00158488
2652.632000 0.37628507 0.41345816 0.03776618 -0.00171569 0.00203734 -0.00151033
2652.736000 0.35120257 0.38978311 0.01493968 -0.00134527 0.00165576 -0.00129447
2652.800000 0.37467535 0.37509607 0.00953747 -0.00093531 0.00114897 -0.00113192
2652.864000 0.39896150 0.35011808 0.00112358 -0.00055234 0.00067237 -0.00082332
2652.960000 0.39289088 0.34763430 0.00061791 -0.00013635 0.00035115 -0.00066449
2653.032000 0.29642969 0.34150830 0.00189599 0.00005922 0.00045215 -0.00060868
2653.096000 0.25971235 0.32689908 0.00322545 0.00029844 0.00041529 -0.00053695
2653.164000 0.24066437 0.32522886 0.00318110 0.00031883 0.00054374 -0.00058772
2653.228000 0.12804003 0.29892966 0.01099919 0.00038647 0.00060027 -0.00054509
2653.296000 0.08572629 0.29226551 0.01128660 0.00036298 0.00056777 -0.00058275
2653.360000 -0.14293018 0.23523359 0.02508344 0.00033997 0.00051792 -0.00056705
2653.424000 -0.22962009 0.22007060 0.02817811 0.00034328 0.00051129 -0.00057714
2653.500000 -0.30702298 0.20311489 0.03049017 0.00041413 0.00059847 -0.00061872
2653.600000 -0.44430636 0.16839460 0.03799064 0.00047872 0.00050461 -0.00060630
2653.664000 -0.51203771 0.15332828 0.04009102 0.00050750 0.00044428 -0.00061317
2653.728000 -0.55831759 0.14105113 0.04168385 0.00055323 0.00034929 -0.00060824
2653.792000 -0.61040164 0.11098687 0.04667117 0.00073600 0.00003796 -0.00047972
2653.860000 -0.61393432 0.10702240 0.04744909 0.00075612 -0.00000168 -0.00044445
2653.932000 -0.61058808 0.10648087 0.04852232 0.00069637 -0.00003452 -0.00041586
2653.996000 -0.61488120 0.09971014 0.04933721 0.00069767 -0.00011152 -0.00036320
2654.060000 -0.63132492 0.08818202 0.05435422 0.00077801 -0.00030781 -0.00022848
2654.128000 -0.63046140 0.08733124 0.05414740 0.00078703 -0.00031845 -0.00021521
2654.196000 -0.62798195 0.07901583 0.05628895 0.00082371 -0.00039219 -0.00014974
2654.268000 -0.61967608 0.08126494 0.05553660 0.00081273 -0.00050393 -0.00017118
2654.332000 -0.61148897 0.07667582 0.05662409 0.00082735 -0.00063806 -0.00011954
2654.396000 -0.61665886 0.07408924 0.05626865 0.00083882 -0.00051234 -0.00011212
2654.464000 -0.60553477 0.06898361 0.05662989 0.00082923 -0.00064078 -0.00006932
2654.564000 -0.60741703 0.06807157 0.05700097 0.00084185 -0.00066933 -0.00005443
2654.628000 -0.61282366 0.06549167 0.05769716 0.00079545 -0.00066928 -0.00006948
2654.700000 -0.61392773 0.06389721 0.05745276 0.00080690 -0.00068217 -0.00007055
2654.760000 -0.62502653 0.05567634 0.05799013 0.00078466 -0.00072242 -0.00007199
2654.832000 -0.63851253 0.03830833 0.05731935 0.00072652 -0.00064383 -0.00007732
2654.896000 -0.65227809 0.01763350 0.05623158 0.00068492 -0.00063590 -0.00008317
2654.956000 -0.66526625 -0.00343554 0.05508326 0.00063406 -0.00065096 -0.00009366
2655.024000 -0.67993536 -0.03012427 0.05353134 0.00059965 -0.00065977 -0.00008858
2655.100000 -0.70178813 -0.06299060 0.05201649 0.00057838 -0.00058632 -0.00008833
2655.164000 -0.71986526 -0.08822467 0.05105806 0.00059009 -0.00055082 -0.00009887
2655.232000 -0.73115349 -0.10705416 0.05021043 0.00059258 -0.00054565 -0.00012021
2655.296000 -0.73680538 -0.12358751 0.04915130 0.00060129 -0.00054749 -0.00012267
2655.360000 -0.74465775 -0.14097091 0.04835175 0.00058116 -0.00055637 -0.00013270
2655.424000 -0.75309556 -0.15839785 0.04779139 0.00054448 -0.00057370 -0.00012932
2655.496000 -0.76140873 -0.17485952 0.04743765 0.00051597 -0.00058213 -0.00012851
2655.560000 -0.76955372 -0.19035628 0.04720282 0.00050553 -0.00058084 -0.00012242
2655.628000 -0.77552363 -0.20870838 0.04660355 0.00050205 -0.00060551 -0.00010798
2655.700000 -0.78131129 -0.22610947 0.04604672 0.00050020 -0.00061928 -0.00010531
2655.804000 -0.79161883 -0.24655326 0.04562428 0.00049646 -0.00060619 -0.00011307
2655.900000 -0.79963072 -0.26644967 0.04509021 0.00050771 -0.00061618 -0.00011478
2655.964000 -0.80230017 -0.28126335 0.04444309 0.00050781 -0.00063590 -0.00011296
2656.028000 -0.81310969 -0.30282288 0.04434504 0.00041696 -0.00063721 -0.00016911
2656.092000 -0.81577077 -0.30073129 0.04435872 0.00045137 -0.00063879 -0.00015846
2656.160000 -0.82123519 -0.30811141 0.04443923 0.00043959 -0.00063615 -0.00014536
2656.264000 -0.82696326 -0.32035795 0.04435756 0.00040325 -0.00064554 -0.00013190
2656.332000 -0.83296105 -0.33095578 0.04436423 0.00038606 -0.00065809 -0.00012891
2656.396000 -0.83918321 -0.33915589 0.04446064 0.00037821 -0.00066260 -0.00013979
2656.460000 -0.84321645 -0.34784321 0.04443275 0.00037303 -0.00066746 -0.00014324
2656.532000 -0.84633287 -0.35517326 0.04439179 0.00037825 -0.00067554 -0.00014891
2656.600000 -0.85431042 -0.36067561 0.04452217 0.00039399 -0.00070246 -0.00014443
2656.656000 -0.85866586 -0.36609267 0.04456618 0.00039621 -0.00072441 -0.00015060
2656.732000 -0.85975467 -0.37361413 0.04431184 0.00038473 -0.00075657 -0.00015311
2656.832000 -0.86014931 -0.38413488 0.04392271 0.00036770 -0.00078591 -0.00014358
2656.928000 -0.85490425 -0.39494805 0.04319736 0.00032942 -0.00080202 -0.00014622
2657.032000 -0.85321551 -0.40597747 0.04264883 0.00032090 -0.00081452 -0.00013259
2657.132000 -0.84718690 -0.41822752 0.04184564 0.00030118 -0.00082174 -0.00011186
2657.228000 -0.81103517 -0.43946933 0.03855716 0.00027242 -0.00085796 -0.00007387
2657.296000 -0.80323909 -0.44903022 0.03764091 0.00029972 -0.00087067 -0.00004302
2657.356000 -0.79844886 -0.45404746 0.03717200 0.00032020 -0.00086942 -0.00002766
2657.428000 -0.79462688 -0.45839133 0.03681767 0.00034133 -0.00086783 -0.00001056
2657.500000 -0.78900504 -0.46162614 0.03637753 0.00036945 -0.00086614 0.00001274
2657.564000 -0.78393768 -0.46497695 0.03598380 0.00036614 -0.00087198 0.00001347
2657.628000 -0.77759854 -0.46929077 0.03553115 0.00034789 -0.00087316 0.00001763
2657.696000 -0.77170990 -0.47296581 0.03514830 0.00033499 -0.00087593 0.00002592
2657.764000 -0.76849149 -0.47603620 0.03496057 0.00032733 -0.00086287 0.00003393
2657.828000 -0.76668660 -0.47768998 0.03492247 0.00032275 -0.00085425 0.00003091
2657.896000 -0.76565406 -0.47912659 0.03492789 0.00032911 -0.00084605 0.00002966
2657.964000 -0.76205531 -0.47913756 0.03485198 0.00035895 -0.00082554 0.00003673
2658.036000 -0.76059885 -0.47969404 0.03485083 0.00039068 -0.00082424 0.00005091
2658.112000 -0.75672294 -0.48161731 0.03466841 0.00038507 -0.00084068 0.00004877
2658.204000 -0.75488387 -0.48189417 0.03479202 0.00038110 -0.00083456 0.00003444
2658.268000 -0.75405415 -0.48072664 0.03502398 0.00038788 -0.00082206 0.00002967
2658.368000 -0.75151974 -0.48088193 0.03514364 0.00038566 -0.00081362 0.00002399
2658.432000 -0.75136263 -0.48014577 0.03538487 0.00039334 -0.00079458 0.00001748
2658.496000 -0.75105581 -0.47910086 0.03558440 0.00039881 -0.00078986 0.00000890
2658.560000 -0.75145781 -0.47814305 0.03581694 0.00040483 -0.00078312 0.00000310
2658.668000 -0.75250278 -0.47726856 0.03621354 0.00041878 -0.00076655 -0.00000071
2658.764000 -0.75407722 -0.47621430 0.03667555 0.00043676 -0.00074112 0.00000614
2658.828000 -0.75464663 -0.47360037 0.03698146 0.00046570 -0.00074328 0.00000111
2658.904000 -0.75285694 -0.47396202 0.03708542 0.00044917 -0.00075318 -0.00001155
2658.964000 -0.74911799 -0.47488112 0.03698891 0.00042747 -0.00076234 -0.00001072
2659.032000 -0.74721112 -0.47315387 0.03708779 0.00042929 -0.00077179 -0.00001289
2659.132000 -0.74549994 -0.47219667 0.03728782 0.00042331 -0.00076808 -0.00002099
2659.200000 -0.74521242 -0.47175460 0.03749026 0.00041544 -0.00074496 -0.00001935
2659.264000 -0.74461326 -0.47086366 0.03771965 0.00040647 -0.00073312 -0.00001890
2659.364000 -0.74180352 -0.47089168 0.03775544 0.00039078 -0.00074682 -0.00000267
2659.432000 -0.74101246 -0.47207028 0.03756983 0.00037302 -0.00078908 0.00003850
2659.500000 -0.74057877 -0.47033326 0.03775396 0.00038141 -0.00078331 0.00004118
2659.560000 -0.74109982 -0.46843694 0.03802797 0.00039965 -0.00077548 0.00004786
2659.628000 -0.74124395 -0.46672634 0.03824239 0.00041098 -0.00077555 0.00005122
2659.704000 -0.74218664 -0.46595865 0.03852852 0.00040850 -0.00075767 0.00004426
2659.756000 -0.74267928 -0.46383268 0.03877085 0.00041976 -0.00074917 0.00004010
2659.832000 -0.74316672 -0.46241847 0.03903065 0.00043083 -0.00073946 0.00003460
2659.932000 -0.74256018 -0.46153679 0.03926585 0.00041975 -0.00072574 0.00004020
2659.996000 -0.74198126 -0.46202174 0.03941208 0.00039985 -0.00071286 0.00004815
2660.060000 -0.73928432 -0.46282932 0.03932945 0.00038565 -0.00071986 0.00005380
2660.132000 -0.73751012 -0.46171306 0.03931641 0.00039721 -0.00071897 0.00005822
2660.196000 -0.73856685 -0.45988207 0.03958486 0.00041128 -0.00070641 0.00005552
2660.300000 -0.73944048 -0.45844180 0.03989095 0.00041848 -0.00069664 0.00005517
2660.360000 -0.74011034 -0.45680651 0.04010032 0.00042532 -0.00068723 0.00006094
2660.460000 -0.73957357 -0.45559171 0.04028300 0.00042467 -0.00068877 0.00006360
2660.536000 -0.73958192 -0.45425108 0.04048047 0.00041669 -0.00068089 0.00005230
2660.604000 -0.73941393 -0.45274424 0.04063257 0.00040467 -0.00068047 0.00003691
2660.660000 -0.73899326 -0.45162916 0.04066562 0.00040193 -0.00068889 0.00003159
2660.764000 -0.73822026 -0.45075943 0.04080803 0.00038631 -0.00068726 0.00002910
2660.832000 -0.73721054 -0.45034183 0.04087082 0.00037249 -0.00068166 0.00003001
2660.896000 -0.73605529 -0.44969991 0.04085824 0.00036490 -0.00069059 0.00002889
2660.964000 -0.73530859 -0.44922867 0.04090416 0.00035661 -0.00069190 0.00002129
2661.032000 -0.73471533 -0.44822738 0.04098649 0.00035035 -0.00069406 0.00001676
2661.100000 -0.73413913 -0.44716933 0.04106645 0.00035263 -0.00069824 0.00001485
2661.160000 -0.73382199 -0.44634298 0.04116401 0.00035145 -0.00069622 0.00001463
2661.260000 -0.73285743 -0.44517860 0.04129007 0.00034540 -0.00070031 0.00001325
2661.332000 -0.73218976 -0.44427239 0.04134772 0.00033014 -0.00069554 0.00000332
2661.404000 -0.73142642 -0.44389558 0.04144908 0.00030659 -0.00069122 -0.00000297
2661.464000 -0.73046787 -0.44312004 0.04144570 0.00030059 -0.00069553 -0.00000117
2661.532000 -0.73020937 -0.44185583 0.04153879 0.00030230 -0.00069408 -0.00000042
2661.596000 -0.73018348 -0.44137679 0.04163984 0.00029619 -0.00068580 0.00000125
2661.660000 -0.73002579 -0.44065030 0.04173961 0.00029017 -0.00068237 0.00000248
2661.732000 -0.73015492 -0.43983360 0.04184183 0.00029229 -0.00067638 0.00000731
2661.796000 -0.73016505 -0.43881273 0.04193638 0.00029764 -0.00067225 0.00001242
2661.860000 -0.73002306 -0.43825580 0.04199140 0.00029681 -0.00066860 0.00001428
2661.932000 -0.72946108 -0.43740239 0.04205047 0.00029311 -0.00066851 0.00001416
2661.996000 -0.72869892 -0.43643488 0.04205813 0.00028948 -0.00067373 0.00001034
2662.060000 -0.72801942 -0.43626052 0.04206769 0.00027995 -0.00067261 0.00001100
2662.128000 -0.72731608 -0.43641926 0.04211607 0.00026816 -0.00066248 0.00001759
2662.228000 -0.72647378 -0.43615260 0.04219097 0.00026551 -0.00065466 0.00002825
2662.300000 -0.72650092 -0.43466697 0.04223283 0.00027509 -0.00065285 0.00003187
2662.360000 -0.72678842 -0.43351152 0.04230285 0.00028245 -0.00065112 0.00003876
2662.432000 -0.72733346 -0.43328901 0.04240489 0.00028769 -0.00063776 0.00004842
2662.500000 -0.72787751 -0.43242177 0.04254108 0.00029440 -0.00062734 0.00005922
2662.564000 -0.72816348 -0.43195253 0.04262102 0.00029714 -0.00061771 0.00007159
2662.628000 -0.72855620 -0.43187187 0.04273693 0.00029474 -0.00060899 0.00007717
2662.700000 -0.72827035 -0.43121987 0.04278840 0.00029167 -0.00060863 0.00008158
2662.756000 -0.72794654 -0.43071496 0.04279384 0.00029283 -0.00060607 0.00008923
2662.832000 -0.72755974 -0.43021886 0.04285252 0.00029090 -0.00060158 0.00009434
2662.900000 -0.72719751 -0.43002617 0.04286859 0.00028507 -0.00059327 0.00009802
2662.956000 -0.72658572 -0.42977548 0.04286901 0.00028217 -0.00059111 0.00010436
2663.040000 -0.72614279 -0.42891451 0.04287089 0.00028584 -0.00059152 0.00010943
2663.096000 -0.72662173 -0.42811787 0.04295029 0.00028695 -0.00058572 0.00011223
2663.160000 -0.72700237 -0.42784101 0.04305405 0.00028467 -0.00057903 0.00011874
2663.228000 -0.72667032 -0.42747096 0.04308912 0.00028407 -0.00057669 0.00012628
2663.340000 -0.72694844 -0.42709332 0.04318774 0.00028101 -0.00056856 0.00013271
2663.392000 -0.72667998 -0.42643057 0.04318821 0.00027863 -0.00056411 0.00013543
2663.464000 -0.72652960 -0.42584137 0.04324251 0.00027851 -0.00056053 0.00013872
2663.528000 -0.72705135 -0.42518280 0.04331937 0.00028330 -0.00055473 0.00014340
2663.596000 -0.72755233 -0.42457259 0.04342835 0.00028767 -0.00054502 0.00015143
2663.660000 -0.72772512 -0.42413186 0.04349418 0.00029243 -0.00053540 0.00015844
2663.764000 -0.72808714 -0.42319439 0.04365309 0.00029394 -0.00052904 0.00016454
2663.868000 -0.72850741 -0.42241493 0.04375627 0.00029302 -0.00051817 0.00016589
2663.928000 -0.72889914 -0.42162964 0.04381348 0.00029409 -0.00050994 0.00016723
2664.000000 -0.72894878 -0.42097870 0.04388362 0.00029554 -0.00050535 0.00016016
2664.060000 -0.72911043 -0.42068924 0.04393066 0.00028838 -0.00049991 0.00014547
2664.128000 -0.73027986 -0.41975166 0.04409676 0.00028477 -0.00048911 0.00013807
2664.236000 -0.73058734 -0.41841446 0.04422265 0.00028228 -0.00048943 0.00012998
2664.300000 -0.73002793 -0.41785490 0.04416696 0.00027782 -0.00048912 0.00012856
2664.400000 -0.72972062 -0.41760892 0.04423574 0.00028001 -0.00048254 0.00013267
2664.460000 -0.72972794 -0.41706437 0.04424940 0.00028132 -0.00047470 0.00012745
2664.532000 -0.72979354 -0.41638747 0.04434046 0.00027620 -0.00047189 0.00012358
2664.668000 -0.72942983 -0.41638456 0.04443582 0.00026797 -0.00046403 0.00012726
2664.728000 -0.72926681 -0.41577340 0.04444188 0.00026653 -0.00045441 0.00012928
2664.800000 -0.72873545 -0.41525491 0.04445836 0.00026325 -0.00045422 0.00011966
2664.860000 -0.72829530 -0.41498043 0.04445417 0.00025676 -0.00045336 0.00011475
2664.968000 -0.72732020 -0.41468046 0.04446500 0.00024871 -0.00045764 0.00011532
2665.032000 -0.72627444 -0.41427460 0.04437454 0.00024100 -0.00046104 0.00011500
2665.100000 -0.72559860 -0.41416748 0.04433615 0.00023638 -0.00046040 0.00011665
2665.164000 -0.72499711 -0.41390035 0.04431860 0.00023104 -0.00046102 0.00012244
2665.228000 -0.72454487 -0.41378776 0.04433833 0.00022424 -0.00045815 0.00012688
2665.292000 -0.72426324 -0.41370424 0.04434285 0.00021799 -0.00045496 0.00013065
2665.404000 -0.72466113 -0.41311235 0.04447506 0.00021888 -0.00044611 0.00013829
2665.460000 -0.72510311 -0.41228491 0.04447901 0.00022001 -0.00044145 0.00013594
2665.532000 -0.72517705 -0.41184888 0.04453151 0.00021679 -0.00043446 0.00013464
2665.596000 -0.72465569 -0.41149340 0.04450821 0.00021265 -0.00043521 0.00014147
2665.660000 -0.72458133 -0.41131695 0.04452122 0.00020852 -0.00043153 0.00014446
2665.732000 -0.72489518 -0.41090887 0.04457365 0.00021127 -0.00042406 0.00014890
2665.800000 -0.72501307 -0.41022246 0.04461062 0.00021469 -0.00042059 0.00015654
2665.860000 -0.72571542 -0.40983898 0.04467534 0.00021680 -0.00041163 0.00016295
2665.932000 -0.72657930 -0.40907552 0.04477895 0.00022137 -0.00040337 0.00016873
2665.996000 -0.72657926 -0.40907529 0.04477890 -0.00015541 0.00044028 0.00164016
2666.064000 -0.72657918 -0.40907539 0.04477885 0.00173848 -0.00206303 0.00174706
2666.132000 -0.72657922 -0.40907540 0.04477886 0.00193387 0.00087584 0.00069767
2666.200000 -0.72657921 -0.40907540 0.04477887 0.00143319 0.00035216 0.00011224
2666.264000 -0.72657919 -0.40907540 0.04477886 0.00225167 -0.00030477 0.00266965
2666.332000 -0.72657914 -0.40907556 0.04477886 0.00028220 -0.00048273 -0.00165595
2666.464000 -0.72657900 -0.40907531 0.04477890 -0.00305115 0.00101059 0.00003727
2666.528000 -0.72657896 -0.40907526 0.04477893 -0.00081427 -0.00021944 -0.00052956
2666.600000 -0.72657898 -0.40907523 0.04477893 0.00124922 -0.00004202 -0.00108569
2666.700000 -0.72657899 -0.40907520 0.04477893 0.00098413 -0.00072476 -0.00096152
2666.760000 -0.72657905 -0.40907524 0.04477892 0.00181502 -0.00181216 -0.00003991
2666.896000 -0.72657896 -0.40907513 0.04477890 0.00015235 -0.00194782 -0.00001289
2666.956000 -0.72657881 -0.40907513 0.04477886 0.00170733 -0.00045359 0.00022155
2667.032000 -0.72657882 -0.40907511 0.04477886 -0.00026858 0.00097092 0.00051977
2667.100000 -0.72657902 -0.40907495 0.04477893 -0.00100037 0.00067603 0.00071101
2667.160000 -0.72657898 -0.40907519 0.04477890 0.00115731 0.00044662 -0.00061245
2667.228000 -0.72657901 -0.40907509 0.04477891 0.00150489 -0.00034844 -0.00031123
2667.300000 -0.72657897 -0.40907510 0.04477891 -0.00112463 0.00085724 -0.00057228
2667.360000 -0.72657896 -0.40907509 0.04477891 0.00089602 0.00122851 0.00007680
2667.424000 -0.72657895 -0.40907511 0.04477890 0.00162550 0.00185496 0.00174553
2667.532000 -0.72657897 -0.40907492 0.04477892 -0.00097755 0.00036293 -0.00021137
2667.596000 -0.72657896 -0.40907491 0.04477892 0.00015128 0.00153327 -0.00123908
2667.660000 -0.72657895 -0.40907490 0.04477892 -0.00022966 -0.00097536 -0.00007292
2667.732000 -0.72657894 -0.40907489 0.04477892 -0.00026812 0.00189179 0.00087328
2667.832000 -0.72657897 -0.40907481 0.04477892 -0.00020255 0.00109137 -0.00101645
2667.900000 -0.72657896 -0.40907480 0.04477892 -0.00070492 0.00077801 -0.00120113
2667.960000 -0.72657903 -0.40907475 0.04477900 -0.00134599 0.00148806 -0.00090470
2668.028000 -0.72657891 -0.40907477 0.04477896 -0.00325848 -0.00028944 -0.00066150
2668.096000 -0.72657894 -0.40907481 0.04477893 0.00230595 -0.00144366 -0.00104954
2668.160000 -0.72657895 -0.40907476 0.04477885 -0.00123031 -0.00020570 -0.00155393
2668.228000 -0.72657903 -0.40907484 0.04477890 0.00083325 -0.00164702 0.00013762
2668.296000 -0.72657905 -0.40907479 0.04477886 0.00009080 0.00059899 -0.00023365
2668.360000 -0.72657901 -0.40907474 0.04477888 -0.00091525 0.00025406 -0.00016766
2668.436000 -0.72657902 -0.40907471 0.04477889 0.00028321 -0.00109915 0.00054592
2668.500000 -0.72657901 -0.40907471 0.04477889 0.00110970 -0.00145574 0.00046041
2668.556000 -0.72657902 -0.40907471 0.04477890 -0.00157072 0.00030529 0.00201680
2668.636000 -0.72657903 -0.40907484 0.04477891 -0.00018365 -0.00008913 -0.00047512
2668.696000 -0.72657902 -0.40907483 0.04477891 -0.00069690 0.00052216 0.00042992
2668.768000 -0.72657899 -0.40907475 0.04477896 0.00069367 0.00122779 -0.00154679
2668.824000 -0.72657901 -0.40907478 0.04477889 -0.00596023 0.00224992 -0.00032588
2668.904000 -0.72657905 -0.40907469 0.04477893 0.00342117 0.00040163 0.00124510
2668.956000 -0.72657891 -0.40907462 0.04477889 -0.00103664 0.00103137 0.00065814
2669.028000 -0.72657891 -0.40907461 0.04477889 0.00227244 -0.00058189 -0.00087098
2669.096000 -0.72657890 -0.40907460 0.04477889 0.00237776 0.00084952 0.00084872
2669.204000 -0.72657857 -0.40907475 0.04477880 0.00110155 0.00079102 -0.00029082
2669.264000 -0.72657855 -0.40907472 0.04477879 -0.00099705 0.00021803 0.00070080
2669.328000 -0.72657860 -0.40907467 0.04477878 -0.00009585 0.00086243 -0.00038613
2669.400000 -0.72657859 -0.40907459 0.04477885 0.00026215 -0.00123508 0.00039507
2669.460000 -0.72657856 -0.40907462 0.04477880 -0.00030567 0.00131901 -0.00017318
2669.528000 -0.72657851 -0.40907471 0.04477868 0.00042689 0.00161705 0.00102631
2669.632000 -0.72657868 -0.40907447 0.04477881 0.00196167 0.00011389 0.00005416
2669.700000 -0.72657863 -0.40907468 0.04477868 0.00002399 0.00054250 0.00120240
2669.800000 -0.72657853 -0.40907475 0.04477864 0.00136964 -0.00058277 -0.00002677
2669.904000 -0.72657844 -0.40907477 0.04477860 -0.00040586 0.00165524 0.00121633
2669.960000 -0.72657844 -0.40907476 0.04477860 0.00311278 0.00003935 -0.00051468
2670.064000 -0.72657850 -0.40907471 0.04477858 0.00028464 0.00070930 0.00044077
2670.132000 -0.72657846 -0.40907472 0.04477856 -0.00088645 0.00050972 0.00097554
2670.196000 -0.72657843 -0.40907471 0.04477857 -0.00145759 0.00142710 0.00002849
2670.260000 -0.72657823 -0.40907490 0.04477850 0.00009782 0.00065531 -0.00130937
2670.328000 -0.72657828 -0.40907495 0.04477846 0.00065902 -0.00040802 -0.00018898
2670.396000 -0.72657827 -0.40907495 0.04477845 0.00142731 0.00011502 -0.00155898
2670.504000 -0.72657822 -0.40907489 0.04477837 0.00063159 -0.00007011 -0.00063260
2670.564000 -0.72657799 -0.40907494 0.04477833 -0.00106554 0.00054864 0.00002706
2670.632000 -0.72657793 -0.40907507 0.04477826 -0.00071438 -0.00094554 0.00197539
2670.696000 -0.72657802 -0.40907464 0.04477851 -0.00072334 0.00116514 -0.00166868
2670.760000 -0.72657807 -0.40907467 0.04477849 0.00078154 0.00001306 -0.00051810
2670.864000 -0.72657805 -0.40907464 0.04477849 -0.00036445 -0.00009365 -0.00037346
2670.928000 -0.72657808 -0.40907462 0.04477850 0.00052804 0.00078128 -0.00013322
2671.000000 -0.72657806 -0.40907452 0.04477857 -0.00060907 0.00249210 -0.00020550
2671.060000 -0.72657804 -0.40907449 0.04477856 0.00018950 0.00020399 -0.00007190
2671.128000 -0.72657796 -0.40907442 0.04477856 0.00038183 -0.00051965 -0.00044321
2671.200000 -0.72657796 -0.40907442 0.04477857 0.00007342 -0.00211890 -0.00061352
2671.264000 -0.72657796 -0.40907441 0.04477857 0.00120320 0.00209474 -0.00240363
2671.332000 -0.72657782 -0.40907456 0.04477845 0.00160157 0.00046144 0.00037856
2671.428000 -0.72657779 -0.40907456 0.04477847 -0.00053124 0.00034747 -0.00035854
2671.492000 -0.72657778 -0.40907455 0.04477847 0.00011441 -0.00004789 -0.00015775
2671.556000 -0.72657779 -0.40907454 0.04477849 -0.00157476 -0.00056068 -0.00073382
2671.628000 -0.72657781 -0.40907454 0.04477850 -0.00098793 0.00055021 0.00029198
2671.732000 -0.72657777 -0.40907455 0.04477853 -0.00055412 0.00063708 0.00087163
2671.800000 -0.72657782 -0.40907443 0.04477857 -0.00111679 0.00066371 -0.00083516
2671.864000 -0.72657780 -0.40907438 0.04477858 0.00195389 -0.00046369 -0.00127905
2671.932000 -0.72657787 -0.40907437 0.04477860 -0.00007979 -0.00152767 -0.00072094
2671.996000 -0.72657786 -0.40907444 0.04477860 0.00101753 0.00046380 -0.00095616
2672.056000 -0.72657788 -0.40907451 0.04477858 0.00142759 0.00038839 0.00105147
2672.128000 -0.72657798 -0.40907437 0.04477868 0.00142624 -0.00016902 -0.00073847
2672.200000 -0.72657800 -0.40907437 0.04477866 0.00249459 0.00089725 0.00018569
2672.260000 -0.72657796 -0.40907440 0.04477861 -0.00039711 0.00031666 0.00120869
2672.328000 -0.72657810 -0.40907427 0.04477866 -0.00011992 0.00086867 0.00005089
2672.396000 -0.72657804 -0.40907428 0.04477866 0.00140061 0.00122469 -0.00068616
2672.460000 -0.72657806 -0.40907428 0.04477866 0.00158983 0.00257005 0.00083793
2672.528000 -0.72657815 -0.40907421 0.04477874 0.00036785 -0.00067458 0.00116522
2672.600000 -0.72657816 -0.40907419 0.04477875 0.00385957 0.00112018 0.00184406
2672.664000 -0.72657815 -0.40907419 0.04477874 0.00123741 0.00080038 -0.00063853
2672.728000 -0.72657813 -0.40907418 0.04477874 0.00025063 -0.00026655 -0.00082749
2672.796000 -0.72657809 -0.40907413 0.04477874 -0.00052855 0.00104637 0.00018848
2672.928000 -0.72657802 -0.40907421 0.04477870 -0.00035856 0.00026784 -0.00024253
2673.000000 -0.72657806 -0.40907427 0.04477868 0.00044575 0.00097100 0.00093451
2673.060000 -0.72657808 -0.40907423 0.04477864 0.00092099 -0.00142393 0.00133231
2673.164000 -0.72657801 -0.40907428 0.04477859 0.00065721 0.00038478 0.00034477
2673.228000 -0.72657804 -0.40907428 0.04477858 -0.00117832 0.00057011 0.00054463
2673.336000 -0.72657812 -0.40907411 0.04477863 0.00030851 0.00079996 -0.00159916
2673.432000 -0.72657811 -0.40907410 0.04477863 -0.00021167 -0.00120168 -0.00094501
2673.496000 -0.72657810 -0.40907409 0.04477863 -0.00014206 0.00071733 0.00004421
2673.560000 -0.72657807 -0.40907412 0.04477859 -0.00023954 -0.00046058 0.00019280
2673.624000 -0.72657813 -0.40907406 0.04477860 0.00049326 -0.00134915 -0.00091397
2673.700000 -0.72657811 -0.40907400 0.04477863 -0.00037100 -0.00101391 -0.00180635
2673.764000 -0.72657810 -0.40907399 0.04477863 -0.00247515 -0.00104854 -0.00130679
2673.832000 -0.72657810 -0.40907407 0.04477879 -0.00030016 0.00084984 -0.00122094
2673.896000 -0.72657821 -0.40907398 0.04477877 -0.00057854 -0.00117835 -0.00160505
2673.964000 -0.72657825 -0.40907395 0.04477873 -0.00028121 0.00076201 -0.00046407
2674.036000 -0.72657819 -0.40907389 0.04477883 -0.00094104 -0.00245498 -0.00037744
2674.100000 -0.72657817 -0.40907393 0.04477880 0.00047827 -0.00060947 -0.00100135
2674.200000 -0.72657816 -0.40907391 0.04477879 -0.00034199 -0.00013367 -0.00062064
2674.260000 -0.72657813 -0.40907398 0.04477877 -0.00013874 -0.00196947 0.00093962
2674.324000 -0.72657812 -0.40907398 0.04477877 -0.00005645 0.00168777 -0.00040046
2674.392000 -0.72657817 -0.40907394 0.04477880 -0.00188881 -0.00096020 -0.00026534
2674.500000 -0.72657817 -0.40907390 0.04477880 -0.00164678 -0.00062031 -0.00135408
2674.564000 -0.72657819 -0.40907387 0.04477883 0.00022859 -0.00063991 -0.00106736
2674.628000 -0.72657827 -0.40907378 0.04477887 -0.00046245 -0.00008849 -0.00074471
2674.700000 -0.72657826 -0.40907388 0.04477884 0.00050325 -0.00025538 0.00126572
2674.764000 -0.72657826 -0.40907384 0.04477875 -0.00070369 -0.00077907 -0.00116265
2674.832000 -0.72657826 -0.40907383 0.04477875 -0.00094355 0.00050654 0.00035376
2674.900000 -0.72657825 -0.40907382 0.04477875 0.00059530 -0.00121866 0.00041093
2674.964000 -0.72657824 -0.40907381 0.04477874 0.00085694 -0.00031726 -0.00107848
2675.028000 -0.72657821 -0.40907383 0.04477872 -0.00036599 0.00081477 -0.00010568
2675.096000 -0.72657816 -0.40907392 0.04477866 -0.00002296 0.00010235 0.00167786
2675.160000 -0.72657802 -0.40907404 0.04477863 0.00001339 0.00026726 0.00025630
2675.224000 -0.72657803 -0.40907395 0.04477865 -0.00158698 -0.00201965 0.00140572
2675.336000 -0.72657809 -0.40907381 0.04477866 0.00210793 0.00149103 0.00063493
2675.396000 -0.72657807 -0.40907379 0.04477867 -0.00202068 -0.00254786 0.00009767
2675.460000 -0.72657807 -0.40907378 0.04477867 0.00049447 0.00085435 0.00073329
2675.532000 -0.72657813 -0.40907383 0.04477859 0.00095945 -0.00091678 0.00163848
2675.604000 -0.72657822 -0.40907358 0.04477874 0.00292661 0.00195575 -0.00036850
2675.668000 -0.72657821 -0.40907349 0.04477877 -0.00010357 -0.00077468 0.00133684
2675.728000 -0.72657822 -0.40907362 0.04477874 -0.00203853 -0.00075457 0.00315453
2675.796000 -0.72657825 -0.40907352 0.04477877 0.00366809 0.00235813 -0.00101535
2675.860000 -0.72657830 -0.40907328 0.04477894 -0.00173435 0.00127624 0.00214183
2675.932000 -0.72657831 -0.40907322 0.04477893 0.00065896 -0.00083122 -0.00026050
2675.992000 -0.72657822 -0.40907328 0.04477875 -0.00119892 0.00296457 0.00055822
2676.064000 -0.72657831 -0.40907300 0.04477896 0.00173089 -0.00032606 0.00234408
2676.132000 -0.72657866 -0.40907265 0.04477924 0.00132182 0.00096314 -0.00026445
2676.196000 -0.72657864 -0.40907265 0.04477922 0.00106007 -0.00065726 -0.00126125
2676.260000 -0.72657855 -0.40907274 0.04477916 -0.00022148 0.00160588 -0.00051770
2676.332000 -0.72657852 -0.40907268 0.04477916 0.00012213 -0.00161951 -0.00015254
2676.436000 -0.72657847 -0.40907281 0.04477913 0.00065334 -0.00159557 -0.00114565
2676.500000 -0.72657850 -0.40907283 0.04477910 0.00107070 -0.00029173 -0.00021742
2676.564000 -0.72657848 -0.40907288 0.04477908 -0.00098370 -0.00066972 -0.00151313
2676.628000 -0.72657846 -0.40907288 0.04477908 0.00026685 0.00074313 -0.00067585
2676.692000 -0.72657828 -0.40907293 0.04477914 -0.00029356 -0.00061979 -0.00060040
2676.760000 -0.72657827 -0.40907304 0.04477913 -0.00375840 -0.00182475 0.00031694
2676.860000 -0.72657821 -0.40907325 0.04477905 0.00054148 -0.00014630 -0.00116570
2676.968000 -0.72657821 -0.40907323 0.04477904 -0.00109741 -0.00140165 -0.00069965
2677.028000 -0.72657826 -0.40907317 0.04477905 0.00161104 -0.00015168 0.00000651
2677.092000 -0.72657820 -0.40907321 0.04477902 -0.00054187 -0.00133431 0.00106958
2677.164000 -0.72657806 -0.40907327 0.04477903 -0.00491908 -0.00442414 0.00035151
2677.232000 -0.72657807 -0.40907321 0.04477906 0.00028489 -0.00029431 0.00031165
2677.296000 -0.72657805 -0.40907319 0.04477906 0.00069178 0.00075625 0.00095800
2677.364000 -0.72657805 -0.40907318 0.04477906 -0.00202082 -0.00107379 0.00062723
2677.428000 -0.72657806 -0.40907314 0.04477913 0.00175672 0.00021404 0.00064641
2677.496000 -0.72657813 -0.40907312 0.04477910 -0.00083928 0.00199039 -0.00099316
2677.560000 -0.72657814 -0.40907307 0.04477913 0.00008138 -0.00115420 0.00138966
2677.640000 -0.72657812 -0.40907306 0.04477913 0.00088701 0.00027488 0.00034726
2677.700000 -0.72657809 -0.40907305 0.04477913 0.00019257 0.00026314 0.00012946
2677.760000 -0.72657808 -0.40907304 0.04477913 -0.00091867 -0.00041296 0.00055994
2677.828000 -0.72657823 -0.40907294 0.04477919 0.00009427 0.00126783 0.00057715
2677.936000 -0.72657822 -0.40907292 0.04477920 0.00065549 0.00038994 0.00055168
2678.004000 -0.72657821 -0.40907291 0.04477917 0.00094063 -0.00032899 -0.00074780
2678.068000 -0.72657826 -0.40907288 0.04477919 -0.00091146 0.00069500 -0.00047116
2678.132000 -0.72657822 -0.40907287 0.04477919 0.00157488 -0.00198057 0.00051625
2678.196000 -0.72657831 -0.40907285 0.04477918 0.00275483 -0.00031819 0.00126670
2678.260000 -0.72657837 -0.40907276 0.04477926 0.00206930 -0.00001032 0.00124063
2678.400000 -0.72657838 -0.40907269 0.04477922 0.00072730 -0.00031905 -0.00015962
2678.500000 -0.72657832 -0.40907267 0.04477918 0.00200818 0.00111736 0.00033168
2678.560000 -0.72657829 -0.40907273 0.04477924 -0.00081348 -0.00123145 0.00023671
2678.628000 -0.72657823 -0.40907274 0.04477920 0.00087770 0.00209457 0.00033832
2678.692000 -0.72657823 -0.40907273 0.04477920 -0.00163228 -0.00156808 -0.00062468
2678.760000 -0.72657810 -0.40907263 0.04477911 0.00101117 0.00111427 0.00205227
2678.832000 -0.72657810 -0.40907261 0.04477911 0.00125034 0.00131938 0.00079356
2678.896000 -0.72657806 -0.40907262 0.04477909 -0.00108677 -0.00179731 0.00144462
2678.964000 -0.72657803 -0.40907262 0.04477907 -0.00198165 -0.00136953 -0.00055300
2679.028000 -0.72657798 -0.40907267 0.04477903 0.00092667 0.00050502 0.00049715
2679.096000 -0.72657799 -0.40907266 0.04477898 0.00101069 -0.00215852 0.00009357
2679.236000 -0.72657826 -0.40907248 0.04477920 0.00055877 -0.00013383 -0.00057219
2679.304000 -0.72657831 -0.40907242 0.04477920 0.00060757 0.00028189 -0.00029759
2679.364000 -0.72657836 -0.40907232 0.04477931 0.00130245 -0.00009616 0.00114446
2679.428000 -0.72657847 -0.40907216 0.04477938 0.00030983 0.00100639 -0.00105897
2679.536000 -0.72657849 -0.40907223 0.04477934 -0.00110476 -0.00253578 -0.00029708
2679.592000 -0.72657844 -0.40907227 0.04477928 0.00215781 -0.00055947 0.00036646
2679.664000 -0.72657841 -0.40907228 0.04477930 -0.00091256 -0.00033308 -0.00037552
2679.732000 -0.72657843 -0.40907226 0.04477929 -0.00200707 -0.00118654 -0.00097594
2679.832000 -0.72657831 -0.40907228 0.04477932 0.00065700 0.00054698 -0.00005142
2679.892000 -0.72657805 -0.40907245 0.04477932 -0.00280982 -0.00056092 -0.00322576
2679.964000 -0.72657804 -0.40907241 0.04477932 -0.00127233 -0.00192307 -0.00115508
2680.032000 -0.72657805 -0.40907236 0.04477934 -0.00027130 -0.00269679 0.00001358
2680.096000 -0.72657789 -0.40907240 0.04477925 0.00068671 0.00104631 -0.00008415
2680.164000 -0.72657785 -0.40907248 0.04477919 -0.00071613 -0.00060049 0.00140381
2680.228000 -0.72657793 -0.40907231 0.04477923 0.00080246 -0.00135563 -0.00025790
2680.304000 -0.72657791 -0.40907230 0.04477922 0.00010116 0.00026442 -0.00015603
2680.356000 -0.72657797 -0.40907244 0.04477922 -0.00051569 -0.00038014 0.00141552
2680.432000 -0.72657801 -0.40907234 0.04477924 0.00055650 0.00136570 -0.00003989
2680.496000 -0.72657800 -0.40907233 0.04477924 0.00121338 0.00067935 0.00047790
2680.560000 -0.72657803 -0.40907230 0.04477933 -0.00006490 0.00008845 0.00141592
2680.632000 -0.72657800 -0.40907231 0.04477932 0.00127884 0.00169171 0.00069999
2680.696000 -0.72657800 -0.40907230 0.04477932 0.00055633 -0.00047729 0.00120817
2680.800000 -0.72657813 -0.40907214 0.04477934 0.00184981 -0.00001416 0.00120115
2680.864000 -0.72657805 -0.40907216 0.04477928 -0.00049976 -0.00152362 0.00133541
2680.932000 -0.72657804 -0.40907219 0.04477926 -0.00130147 -0.00122106 -0.00055893
2680.996000 -0.72657785 -0.40907220 0.04477919 0.00093678 0.00034077 0.00033084
2681.104000 -0.72657781 -0.40907213 0.04477913 0.00150914 -0.00069515 0.00060394
2681.200000 -0.72657779 -0.40907212 0.04477913 -0.00176544 0.00024055 -0.00034005
2681.264000 -0.72657760 -0.40907223 0.04477904 -0.00053371 -0.00033537 -0.00172308
2681.328000 -0.72657759 -0.40907224 0.04477903 0.00208799 0.00148089 0.00159859
2681.428000 -0.72657757 -0.40907223 0.04477905 -0.00056209 -0.00102250 0.00083288
2681.500000 -0.72657761 -0.40907216 0.04477908 -0.00123758 -0.00007326 -0.00015036
2681.564000 -0.72657746 -0.40907225 0.04477904 0.00032040 -0.00010451 -0.00035095
2681.628000 -0.72657753 -0.40907215 0.04477909 0.00048824 -0.00158810 0.00064924
2681.700000 -0.72657750 -0.40907216 0.04477907 0.00297524 0.00090105 -0.00065422
2681.828000 -0.72657743 -0.40907228 0.04477909 0.00128953 -0.00001864 -0.00042896
2681.932000 -0.72657744 -0.40907235 0.04477901 -0.00117400 -0.00018019 0.00124095
2682.000000 -0.72657738 -0.40907243 0.04477894 -0.00009263 0.00070039 -0.00004589
2682.060000 -0.72657738 -0.40907244 0.04477891 0.00006591 -0.00055764 -0.00086075
2682.128000 -0.72657748 -0.40907252 0.04477889 -0.00228595 -0.00003833 -0.00065812
2682.192000 -0.72657747 -0.40907253 0.04477888 -0.00022978 0.00264166 -0.00035874
2682.300000 -0.72657745 -0.40907252 0.04477887 -0.00137922 -0.00128707 0.00005026
2682.364000 -0.72657745 -0.40907251 0.04477888 -0.00085319 -0.00082329 -0.00035787
2682.428000 -0.72657754 -0.40907241 0.04477893 -0.00063490 -0.00079587 -0.00150827
2682.500000 -0.72657752 -0.40907238 0.04477898 -0.00138878 -0.00164790 -0.00064911
2682.612000 -0.72657758 -0.40907244 0.04477900 0.00053263 0.00082188 -0.00000107
2682.660000 -0.72657759 -0.40907240 0.04477901 -0.00096548 0.00059184 -0.00064913
2682.760000 -0.72657758 -0.40907239 0.04477901 -0.00034305 -0.00039010 -0.00005360
2682.832000 -0.72657758 -0.40907238 0.04477900 -0.00075266 -0.00057963 0.00220287
2682.900000 -0.72657749 -0.40907255 0.04477897 0.00097765 -0.00099744 -0.00073222
2682.960000 -0.72657747 -0.40907253 0.04477897 -0.00100631 -0.00008962 -0.00177498
2683.028000 -0.72657755 -0.40907256 0.04477898 -0.00083712 -0.00183375 -0.00016620
2683.096000 -0.72657745 -0.40907258 0.04477895 -0.00013857 -0.00110034 -0.00027752
2683.160000 -0.72657745 -0.40907257 0.04477895 -0.00116366 -0.00068880 -0.00005600
2683.232000 -0.72657754 -0.40907263 0.04477893 -0.00109607 -0.00075052 -0.00058047
2683.296000 -0.72657753 -0.40907263 0.04477893 -0.00188657 0.00097729 -0.00014616
2683.364000 -0.72657758 -0.40907264 0.04477898 0.00003088 0.00043927 -0.00015853
2683.428000 -0.72657755 -0.40907260 0.04477898 -0.00046084 -0.00051404 0.00043097
2683.496000 -0.72657761 -0.40907250 0.04477895 0.00124316 0.00070163 0.00014857
2683.560000 -0.72657761 -0.40907249 0.04477896 -0.00093367 0.00112761 -0.00041885
2683.628000 -0.72657759 -0.40907248 0.04477896 0.00011698 0.00168698 0.00174240
2683.696000 -0.72657760 -0.40907248 0.04477895 -0.00093321 0.00127075 0.00145318
2683.760000 -0.72657764 -0.40907236 0.04477900 -0.00096925 0.00132849 0.00104837
2683.832000 -0.72657766 -0.40907234 0.04477898 0.00140363 0.00076182 0.00110596
2683.936000 -0.72657758 -0.40907230 0.04477902 0.00110326 -0.00085599 0.00022819
2683.996000 -0.72657764 -0.40907232 0.04477906 -0.00023065 -0.00052005 0.00008669
2684.064000 -0.72657745 -0.40907232 0.04477894 0.00259548 0.00030197 -0.00011526
2684.132000 -0.72657745 -0.40907231 0.04477894 0.00239097 0.00208174 0.00053554
2684.232000 -0.72657743 -0.40907229 0.04477897 -0.00065122 -0.00131115 0.00037781
2684.300000 -0.72657761 -0.40907240 0.04477914 0.00153225 0.00093218 0.00170534
2684.360000 -0.72657760 -0.40907302 0.04477911 0.00095932 0.00189574 -0.00351075
2684.428000 -0.72657771 -0.40907227 0.04477940 0.00091963 -0.00036300 0.00197872
2684.496000 -0.72657765 -0.40907235 0.04477935 -0.00083962 0.00100711 0.00143997
2684.600000 -0.72657745 -0.40907262 0.04477929 0.00146189 0.00000160 -0.00033482
2684.668000 -0.72657742 -0.40907258 0.04477929 0.00041198 0.00120292 -0.00021233
2684.760000 -0.72657741 -0.40907255 0.04477929 0.00064661 0.00039981 0.00088825
2684.832000 -0.72657735 -0.40907251 0.04477925 0.00277987 0.00070651 0.00127770
2684.896000 -0.72657734 -0.40907257 0.04477928 0.00081123 0.00031505 -0.00047850
2684.964000 -0.72657730 -0.40907260 0.04477925 0.00109206 0.00024061 -0.00208111
2685.028000 -0.72657725 -0.40907270 0.04477915 0.00141500 -0.00004918 0.00048074
2685.104000 -0.72657720 -0.40907263 0.04477909 -0.00024328 0.00079927 0.00038376
2685.160000 -0.72657720 -0.40907262 0.04477909 0.00013094 0.00189041 -0.00137734
2685.268000 -0.72657724 -0.40907254 0.04477912 -0.00167380 0.00007902 -0.00012320
2685.328000 -0.72657723 -0.40907253 0.04477912 0.00056182 0.00132416 -0.00062253
2685.396000 -0.72657717 -0.40907248 0.04477906 -0.00088696 -0.00084971 0.00082208
2685.460000 -0.72657716 -0.40907247 0.04477906 -0.00007125 0.00125245 -0.00214333
2685.532000 -0.72657718 -0.40907264 0.04477901 -0.00207202 -0.00186928 0.00092587
2685.600000 -0.72657716 -0.40907247 0.04477902 -0.00204569 -0.00189306 -0.00122037
2685.660000 -0.72657715 -0.40907245 0.04477902 0.00098957 -0.00269723 -0.00051753
2685.728000 -0.72657714 -0.40907243 0.04477902 0.00077558 -0.00088834 -0.00014790
2685.800000 -0.72657709 -0.40907243 0.04477901 -0.00207472 -0.00021251 -0.00136177
2685.856000 -0.72657712 -0.40907243 0.04477902 0.00012383 -0.00074957 -0.00071293
2685.928000 -0.72657718 -0.40907244 0.04477901 -0.00053305 -0.00182982 0.00020170
2686.004000 -0.72657717 -0.40907242 0.04477901 -0.00063032 -0.00035729 -0.00039159
2686.060000 -0.72657724 -0.40907244 0.04477904 -0.00055758 -0.00017300 0.00043118
2686.132000 -0.72657729 -0.40907253 0.04477903 0.00021896 -0.00008504 0.00182497
2686.200000 -0.72657727 -0.40907241 0.04477903 -0.00069292 -0.00080255 0.00109046
2686.260000 -0.72657729 -0.40907244 0.04477903 -0.00035927 0.00068665 0.00069458
2686.328000 -0.72657728 -0.40907243 0.04477903 -0.00027971 -0.00103353 0.00055230
2686.428000 -0.72657729 -0.40907237 0.04477905 0.00022659 0.00122832 -0.00066740
2686.496000 -0.72657732 -0.40907233 0.04477907 0.00045435 -0.00014984 -0.00056609
2686.600000 -0.72657737 -0.40907221 0.04477916 0.00121247 -0.00030931 0.00078015
2686.664000 -0.72657736 -0.40907221 0.04477916 -0.00015525 0.00229532 -0.00084523
2686.728000 -0.72657738 -0.40907208 0.04477921 0.00098810 -0.00048235 0.00249640
2686.800000 -0.72657731 -0.40907216 0.04477917 0.00160464 0.00218110 0.00044946
2686.860000 -0.72657734 -0.40907220 0.04477913 -0.00102737 -0.00126652 0.00032953
2686.932000 -0.72657726 -0.40907229 0.04477905 0.00013308 0.00140897 0.00154667
2686.992000 -0.72657725 -0.40907228 0.04477905 0.00100456 -0.00020156 0.00145159
2687.060000 -0.72657695 -0.40907251 0.04477893 0.00054671 0.00219902 0.00037146
2687.124000 -0.72657698 -0.40907257 0.04477895 0.00052158 -0.00052495 0.00057897
2687.196000 -0.72657694 -0.40907260 0.04477897 0.00102572 -0.00041932 0.00080827
2687.256000 -0.72657694 -0.40907259 0.04477897 -0.00153377 0.00107273 0.00044922
2687.328000 -0.72657705 -0.40907240 0.04477902 -0.00037807 -0.00019848 0.00018136
2687.428000 -0.72657701 -0.40907230 0.04477904 0.00056955 0.00152168 0.00087486
2687.496000 -0.72657699 -0.40907237 0.04477905 -0.00045948 -0.00058869 -0.00020138
2687.600000 -0.72657689 -0.40907233 0.04477902 0.00132981 -0.00010834 -0.00018483
2687.660000 -0.72657690 -0.40907231 0.04477902 0.00203051 -0.00119197 -0.00002141
2687.728000 -0.72657687 -0.40907230 0.04477901 -0.00134850 0.00012132 -0.00103854
2687.796000 -0.72657689 -0.40907224 0.04477910 -0.00087219 0.00056563 0.00128382
2687.860000 -0.72657694 -0.40907219 0.04477915 -0.00148093 -0.00094122 -0.00093934
2687.924000 -0.72657694 -0.40907217 0.04477915 -0.00074086 0.00038037 -0.00037829
2688.028000 -0.72657698 -0.40907214 0.04477918 0.00060982 0.00008905 -0.00010188
2688.096000 -0.72657698 -0.40907214 0.04477915 0.00025917 -0.00242682 -0.00013981
2688.160000 -0.72657694 -0.40907217 0.04477912 0.00043827 -0.00062078 -0.00087358
2688.228000 -0.72657695 -0.40907216 0.04477915 -0.00067568 -0.00021273 0.00019748
2688.308000 -0.72657680 -0.40907211 0.04477909 -0.00335541 -0.00045446 -0.00000231
2688.400000 -0.72657680 -0.40907207 0.04477909 0.00257015 0.00145214 0.00035489
2688.464000 -0.72657679 -0.40907207 0.04477909 -0.00072255 0.00129253 -0.00121563
2688.528000 -0.72657678 -0.40907210 0.04477908 -0.00009970 -0.00112236 0.00138671
2688.600000 -0.72657674 -0.40907221 0.04477907 -0.00244648 0.00018906 -0.00273107
2688.660000 -0.72657669 -0.40907213 0.04477907 0.00085986 -0.00064876 -0.00120814
2688.724000 -0.72657665 -0.40907222 0.04477902 -0.00250030 0.00189446 -0.00016501
2688.800000 -0.72657663 -0.40907222 0.04477901 -0.00012485 -0.00084734 -0.00122082
2688.860000 -0.72657665 -0.40907230 0.04477901 0.00095300 -0.00072576 0.00099547
2688.932000 -0.72657679 -0.40907239 0.04477896 0.00086135 -0.00070948 0.00159248
2688.996000 -0.72657675 -0.40907261 0.04477896 0.00048871 -0.00184059 -0.00022280
2689.060000 -0.72657675 -0.40907259 0.04477896 -0.00134332 -0.00124205 -0.00060352
2689.132000 -0.72657689 -0.40907239 0.04477895 0.00024811 -0.00070886 -0.00001542
2689.228000 -0.72657679 -0.40907233 0.04477890 -0.00072032 0.00126980 0.00105030
2689.300000 -0.72657680 -0.40907230 0.04477890 0.00155467 0.00123108 0.00153042
2689.360000 -0.72657675 -0.40907231 0.04477892 -0.00166025 -0.00029618 0.00016051
2689.424000 -0.72657674 -0.40907224 0.04477892 0.00036598 0.00009923 0.00209440
2689.500000 -0.72657675 -0.40907221 0.04477894 0.00326956 0.00082483 0.00198938
2689.564000 -0.72657670 -0.40907230 0.04477892 -0.00099958 0.00053434 -0.00194244
2689.628000 -0.72657669 -0.40907217 0.04477897 0.00173283 -0.00117115 0.00270696
2689.696000 -0.72657669 -0.40907216 0.04477897 0.00159837 0.00013548 0.00203406
2689.760000 -0.72657673 -0.40907207 0.04477900 -0.00070581 0.00167160 -0.00084828
2689.828000 -0.72657672 -0.40907205 0.04477900 0.00095620 0.00106008 0.00048802
2689.892000 -0.72657674 -0.40907207 0.04477897 0.00033277 0.00031515 0.00033404
2689.964000 -0.72657675 -0.40907205 0.04477896 0.00119982 0.00128202 0.00023484
2690.032000 -0.72657673 -0.40907202 0.04477895 0.00048351 0.00312376 0.00166912
2690.100000 -0.72657670 -0.40907191 0.04477892 0.00129878 -0.00053776 -0.00045824
2690.160000 -0.72657668 -0.40907189 0.04477893 0.00173575 0.00181743 0.00135597
2690.228000 -0.72657669 -0.40907183 0.04477893 0.00061895 -0.00002482 0.00084351
2690.332000 -0.72657665 -0.40907182 0.04477893 0.00004926 0.00207393 -0.00083309
2690.400000 -0.72657660 -0.40907182 0.04477891 0.00083432 -0.00140478 -0.00095209
2690.464000 -0.72657659 -0.40907179 0.04477894 -0.00053838 -0.00147196 -0.00061340
2690.532000 -0.72657657 -0.40907177 0.04477894 -0.00078948 -0.00025099 -0.00051612
2690.628000 -0.72657681 -0.40907166 0.04477904 0.00073900 0.00179687 -0.00052030
2690.700000 -0.72657688 -0.40907166 0.04477912 -0.00063859 -0.00166735 0.00017354
2690.756000 -0.72657684 -0.40907164 0.04477907 0.00001997 0.00144922 -0.00046330
2690.832000 -0.72657693 -0.40907162 0.04477908 -0.00183349 0.00012792 -0.00037008
2690.896000 -0.72657701 -0.40907166 0.04477914 -0.00028558 -0.00029087 -0.00211493
2690.960000 -0.72657693 -0.40907155 0.04477913 0.00098931 0.00056399 0.00031247
2691.024000 -0.72657693 -0.40907145 0.04477913 0.00008366 -0.00277834 -0.00057719
2691.104000 -0.72657663 -0.40907121 0.04477903 -0.00414675 -0.00024830 -0.00095428
2691.232000 -0.72657663 -0.40907116 0.04477904 0.00143917 -0.00080990 0.00130982
2691.296000 -0.72657644 -0.40907124 0.04477899 -0.00126959 0.00175817 -0.00173054
2691.360000 -0.72657635 -0.40907143 0.04477891 -0.00097700 0.00003221 0.00101293
2691.428000 -0.72657631 -0.40907143 0.04477892 -0.00169995 -0.00074146 0.00012739
2691.500000 -0.72657639 -0.40907125 0.04477895 -0.00088601 0.00142718 -0.00068154
2691.568000 -0.72657638 -0.40907123 0.04477894 -0.00098430 -0.00149669 0.00036909
2691.632000 -0.72657637 -0.40907135 0.04477896 -0.00044828 -0.00006944 0.00062991
2691.700000 -0.72657637 -0.40907131 0.04477897 -0.00090182 0.00135903 0.00092909
2691.760000 -0.72657641 -0.40907131 0.04477896 0.00012156 -0.00056044 0.00114865
2691.836000 -0.72657644 -0.40907127 0.04477896 0.00338466 -0.00007281 0.00137591
2691.892000 -0.72657640 -0.40907128 0.04477896 0.00007171 -0.00109557 0.00083188
2691.964000 -0.72657632 -0.40907122 0.04477889 0.00346336 0.00111992 0.00210266
2692.028000 -0.72657633 -0.40907123 0.04477891 0.00098842 -0.00006570 -0.00007444
2692.096000 -0.72657624 -0.40907124 0.04477888 -0.00013290 0.00143873 0.00107720
2692.160000 -0.72657623 -0.40907128 0.04477892 0.00134690 0.00159189 0.00079757
2692.228000 -0.72657621 -0.40907116 0.04477884 0.00053664 -0.00048937 -0.00097235
2692.292000 -0.72657614 -0.40907081 0.04477879 -0.00077539 0.00105315 0.00166831
2692.356000 -0.72657620 -0.40907068 0.04477875 -0.00148434 0.00020961 0.00059752
2692.432000 -0.72657629 -0.40907057 0.04477876 0.00119466 0.00253892 -0.00013834
2692.512000 -0.72657628 -0.40907055 0.04477876 0.00336418 0.00227918 0.00167499
2692.560000 -0.72657628 -0.40907064 0.04477875 -0.00419511 -0.00145430 -0.00152582
2692.624000 -0.72657627 -0.40907063 0.04477874 0.00106945 0.00093832 0.00208824
2692.728000 -0.72657588 -0.40907099 0.04477867 0.00127800 0.00062627 -0.00079941
2692.832000 -0.72657590 -0.40907097 0.04477867 -0.00005998 0.00045753 0.00193291
2692.892000 -0.72657584 -0.40907112 0.04477863 0.00117459 0.00020967 -0.00177050
2692.996000 -0.72657583 -0.40907108 0.04477863 -0.00062734 0.00105965 -0.00091307
2693.060000 -0.72657584 -0.40907107 0.04477863 0.00065533 0.00008877 -0.00022690
2693.132000 -0.72657596 -0.40907092 0.04477878 -0.00002980 0.00207641 0.00048222
2693.196000 -0.72657600 -0.40907105 0.04477871 -0.00027687 -0.00095038 0.00104784
2693.260000 -0.72657600 -0.40907091 0.04477869 -0.00020262 0.00026200 -0.00144277
2693.328000 -0.72657602 -0.40907093 0.04477867 -0.00073594 -0.00242548 0.00105912
2693.424000 -0.72657598 -0.40907089 0.04477866 0.00093489 -0.00039531 0.00119673
2693.500000 -0.72657611 -0.40907079 0.04477871 -0.00036329 -0.00100608 0.00026634
2693.612000 -0.72657612 -0.40907074 0.04477869 -0.00146338 -0.00011314 -0.00000221
2693.660000 -0.72657602 -0.40907086 0.04477862 0.00111610 -0.00082300 -0.00118341
2693.768000 -0.72657600 -0.40907083 0.04477862 0.00032619 0.00026183 -0.00073879
2693.864000 -0.72657599 -0.40907092 0.04477861 -0.00014677 -0.00074581 0.00025612
2693.932000 -0.72657608 -0.40907083 0.04477865 -0.00100173 -0.00011411 -0.00151651
2694.000000 -0.72657609 -0.40907099 0.04477854 -0.00070159 -0.00136595 0.00010318
2694.060000 -0.72657601 -0.40907102 0.04477850 0.00139203 -0.00029450 -0.00008496
2694.124000 -0.72657602 -0.40907105 0.04477851 -0.00069988 0.00037613 0.00007121
2694.236000 -0.72657590 -0.40907098 0.04477847 -0.00091998 0.00013130 0.00049805
2694.336000 -0.72657576 -0.40907100 0.04477844 0.00016799 -0.00050190 0.00129474
2694.400000 -0.72657581 -0.40907101 0.04477842 0.00072730 -0.00054705 -0.00012528
2694.460000 -0.72657579 -0.40907105 0.04477839 -0.00070785 0.00102756 -0.00026289
2694.524000 -0.72657585 -0.40907111 0.04477834 -0.00045745 0.00008555 0.00050060
2694.596000 -0.72657584 -0.40907113 0.04477834 0.00036711 0.00002400 -0.00078400
2694.664000 -0.72657585 -0.40907107 0.04477835 0.00057895 0.00045965 -0.00061476
2694.728000 -0.72657579 -0.40907084 0.04477837 -0.00016172 0.00029118 -0.00019024
2694.796000 -0.72657591 -0.40907079 0.04477837 -0.00108193 0.00102884 0.00029542
2694.860000 -0.72657590 -0.40907081 0.04477837 -0.00071479 -0.00228062 0.00063272
2694.932000 -0.72657583 -0.40907084 0.04477834 -0.00030657 -0.00138617 0.00065460
2695.000000 -0.72657583 -0.40907083 0.04477834 0.00072030 0.00068049 -0.00100861
2695.056000 -0.72657581 -0.40907085 0.04477833 0.00233108 0.00020766 -0.00176413
2695.128000 -0.72657581 -0.40907086 0.04477831 0.00034579 -0.00184861 0.00149090
2695.232000 -0.72657572 -0.40907083 0.04477828 -0.00019910 0.00068538 0.00029248
2695.332000 -0.72657575 -0.40907068 0.04477829 0.00021299 0.00039084 -0.00056025
2695.396000 -0.72657580 -0.40907078 0.04477828 -0.00138039 0.00129417 0.00132603
2695.464000 -0.72657571 -0.40907080 0.04477824 -0.00033816 -0.00034695 0.00177357
2695.524000 -0.72657571 -0.40907074 0.04477822 -0.00007303 0.00010131 0.00161959
2695.604000 -0.72657581 -0.40907067 0.04477830 0.00099680 0.00306482 -0.00066470
2695.664000 -0.72657580 -0.40907067 0.04477830 -0.00115690 -0.00002543 -0.00134164
2695.736000 -0.72657580 -0.40907076 0.04477825 -0.00000734 0.00100065 -0.00026018
2695.832000 -0.72657585 -0.40907062 0.04477825 0.00167257 0.00040801 0.00021218
2695.900000 -0.72657590 -0.40907071 0.04477820 0.00106911 -0.00130397 0.00219170
2695.956000 -0.72657591 -0.40907093 0.04477824 0.00169475 -0.00003535 -0.00103817
2696.028000 -0.72657571 -0.40907087 0.04477818 -0.00098832 -0.00049670 -0.00030672
2696.100000 -0.72657570 -0.40907086 0.04477818 -0.00115821 -0.00052151 -0.00036305
2696.160000 -0.72657568 -0.40907081 0.04477824 -0.00025049 -0.00008369 0.00217833
2696.228000 -0.72657568 -0.40907079 0.04477825 0.00071543 0.00256604 0.00120969
2696.300000 -0.72657572 -0.40907074 0.04477823 -0.00082858 -0.00057281 -0.00028529
2696.356000 -0.72657568 -0.40907077 0.04477815 0.00000184 0.00077377 0.00075818
2696.428000 -0.72657574 -0.40907064 0.04477812 0.00214915 0.00015305 0.00073378
2696.492000 -0.72657587 -0.40907087 0.04477825 -0.00037903 0.00261811 0.00006058
2696.560000 -0.72657585 -0.40907090 0.04477829 0.00127232 0.00078320 -0.00012140
2696.624000 -0.72657578 -0.40907084 0.04477827 -0.00033440 0.00096676 -0.00002327
2696.700000 -0.72657578 -0.40907084 0.04477829 0.00007585 -0.00060438 0.00102232
2696.764000 -0.72657577 -0.40907084 0.04477829 -0.00044663 -0.00114094 -0.00028250
2696.832000 -0.72657564 -0.40907130 0.04477817 -0.00054424 -0.00140623 -0.00069816
2696.896000 -0.72657558 -0.40907114 0.04477817 -0.00214758 0.00155653 -0.00030695
2696.960000 -0.72657557 -0.40907112 0.04477817 -0.00047512 0.00079681 -0.00124033
2697.028000 -0.72657558 -0.40907120 0.04477813 -0.00016419 0.00022249 0.00038549
2697.096000 -0.72657567 -0.40907102 0.04477820 0.00118539 -0.00022687 -0.00041097
2697.160000 -0.72657575 -0.40907117 0.04477818 0.00127709 0.00105862 0.00019747
2697.264000 -0.72657587 -0.40907084 0.04477821 0.00100235 -0.00047908 -0.00032311
2697.328000 -0.72657586 -0.40907075 0.04477824 -0.00002939 0.00069121 0.00163917
2697.444000 -0.72657586 -0.40907068 0.04477825 -0.00005632 -0.00047318 0.00013057
2697.496000 -0.72657595 -0.40907062 0.04477827 -0.00081852 0.00014759 -0.00098615
2697.560000 -0.72657592 -0.40907056 0.04477827 -0.00167783 0.00124027 0.00109916
2697.628000 -0.72657591 -0.40907055 0.04477827 -0.00152254 -0.00115160 -0.00091612
2697.696000 -0.72657584 -0.40907060 0.04477825 -0.00102521 -0.00019148 -0.00099267
2697.760000 -0.72657578 -0.40907058 0.04477825 -0.00035879 0.00157401 0.00094504
2697.828000 -0.72657570 -0.40907058 0.04477821 -0.00015792 -0.00069336 -0.00107134
2697.900000 -0.72657586 -0.40907048 0.04477829 -0.00010396 -0.00036459 -0.00160843
2697.964000 -0.72657586 -0.40907047 0.04477828 0.00015806 0.00050014 -0.00023715
2698.028000 -0.72657586 -0.40907049 0.04477826 0.00041983 -0.00074583 -0.00034026
2698.096000 -0.72657584 -0.40907039 0.04477833 -0.00001011 -0.00077254 -0.00005821
2698.160000 -0.72657584 -0.40907039 0.04477831 0.00041877 0.00022539 0.00037095
2698.268000 -0.72657600 -0.40907032 0.04477812 -0.00066219 0.00022154 -0.00022573
2698.328000 -0.72657606 -0.40907023 0.04477812 -0.00075856 0.00013159 -0.00113475
2698.428000 -0.72657606 -0.40907021 0.04477812 -0.00008537 -0.00018378 -0.00059656
2698.500000 -0.72657613 -0.40907021 0.04477813 -0.00019857 0.00045032 0.00045628
2698.560000 -0.72657605 -0.40907030 0.04477807 0.00022474 -0.00026439 -0.00042954
2698.704000 -0.72657603 -0.40907025 0.04477806 -0.00074544 -0.00055558 0.00063837
2698.760000 -0.72657605 -0.40907021 0.04477807 0.00040113 -0.00036015 -0.00100531
2698.828000 -0.72657597 -0.40907012 0.04477799 -0.00010415 -0.00011139 -0.00084652
2698.896000 -0.72657613 -0.40907028 0.04477802 0.00075032 0.00262745 0.00002071
2698.956000 -0.72657612 -0.40907028 0.04477802 0.00049547 0.00005557 -0.00151525
2699.024000 -0.72657611 -0.40907030 0.04477796 0.00029056 -0.00044181 0.00089823
2699.096000 -0.72657614 -0.40907030 0.04477796 0.00079567 -0.00079055 0.00048308
2699.164000 -0.72657612 -0.40907034 0.04477794 0.00070452 -0.00020223 0.00068601
2699.228000 -0.72657613 -0.40907033 0.04477792 -0.00082271 -0.00201227 0.00088396
2699.296000 -0.72657603 -0.40907038 0.04477774 0.00100635 0.00193325 0.00100919
2699.360000 -0.72657604 -0.40907038 0.04477773 0.00030019 -0.00095950 0.00138435
2699.436000 -0.72657598 -0.40907050 0.04477771 0.00000866 0.00012370 0.00018608
2699.500000 -0.72657597 -0.40907051 0.04477768 -0.00039192 -0.00046801 -0.00072352
2699.560000 -0.72657599 -0.40907051 0.04477768 -0.00163555 -0.00182933 0.00019594
2699.628000 -0.72657593 -0.40907061 0.04477764 -0.00070857 0.00010570 -0.00065656
2699.696000 -0.72657591 -0.40907061 0.04477763 0.00146591 0.00132526 -0.00113800
2699.760000 -0.72657587 -0.40907049 0.04477767 0.00024794 -0.00013841 0.00162574
2699.836000 -0.72657587 -0.40907064 0.04477774 0.00000180 -0.00045680 0.00051525
2699.896000 -0.72657591 -0.40907057 0.04477776 -0.00231481 -0.00004035 0.00003588
2699.960000 -0.72657589 -0.40907051 0.04477777 -0.00007274 -0.00101042 0.00175914
2700.032000 -0.72657587 -0.40907051 0.04477778 -0.00251291 0.00008907 -0.00050136
2700.096000 -0.72657575 -0.40907066 0.04477765 0.00014786 0.00003843 -0.00107878
2700.160000 -0.72657555 -0.40907047 0.04477770 0.00061908 -0.00208928 0.00048895
2700.300000 -0.72657559 -0.40907022 0.04477777 0.00067632 -0.00024643 0.00038645
2700.360000 -0.72657559 -0.40907021 0.04477777 -0.00092085 -0.00157744 0.00227929
2700.428000 -0.72657548 -0.40907024 0.04477774 -0.00034351 0.00068892 0.00091910
2700.504000 -0.72657550 -0.40907019 0.04477772 0.00022807 0.00036842 0.00054195
2700.560000 -0.72657549 -0.40907018 0.04477772 0.00097467 0.00174983 -0.00052807
2700.640000 -0.72657550 -0.40907013 0.04477772 -0.00157004 -0.00046635 -0.00057660
2700.736000 -0.72657555 -0.40907031 0.04477772 0.00088950 0.00014773 0.00017735
2700.800000 -0.72657548 -0.40907038 0.04477773 -0.00020011 -0.00037054 -0.00030233
2700.860000 -0.72657546 -0.40907041 0.04477772 0.00014118 -0.00083519 -0.00051556
2700.928000 -0.72657547 -0.40907044 0.04477771 -0.00084081 -0.00073957 0.00103459
2701.000000 -0.72657558 -0.40907039 0.04477773 0.00091572 0.00066975 0.00024741
2701.064000 -0.72657546 -0.40907036 0.04477768 0.00098622 0.00143985 0.00049782
2701.128000 -0.72657552 -0.40907045 0.04477773 0.00053206 -0.00073692 0.00001781
2701.200000 -0.72657546 -0.40907049 0.04477770 -0.00001155 -0.00085272 -0.00109268
2701.256000 -0.72657535 -0.40907041 0.04477769 0.00114306 0.00121043 0.00023235
2701.328000 -0.72657531 -0.40907037 0.04477768 -0.00005641 -0.00151071 -0.00065299
2701.400000 -0.72657524 -0.40907042 0.04477773 -0.00044918 -0.00104182 -0.00044014
2701.500000 -0.72657520 -0.40907034 0.04477772 -0.00172580 0.00031312 0.00152917
2701.560000 -0.72657512 -0.40907043 0.04477773 0.00014639 -0.00032591 0.00025563
2701.628000 -0.72657501 -0.40907053 0.04477769 -0.00046199 -0.00065634 -0.00235930
2701.704000 -0.72657502 -0.40907046 0.04477769 -0.00057683 -0.00043502 0.00002731
2701.760000 -0.72657494 -0.40907049 0.04477768 0.00051145 -0.00027409 -0.00022643
2701.832000 -0.72657498 -0.40907042 0.04477770 -0.00008365 -0.00134413 0.00136235
2701.896000 -0.72657503 -0.40907034 0.04477771 0.00056954 -0.00029909 -0.00068235
2701.960000 -0.72657503 -0.40907033 0.04477771 0.00052861 -0.00075369 0.00097390
2702.024000 -0.72657500 -0.40907034 0.04477772 0.00019712 -0.00053477 -0.00035566
2702.092000 -0.72657500 -0.40907033 0.04477772 -0.00196438 0.00094947 0.00014556
2702.204000 -0.72657496 -0.40907034 0.04477771 -0.00078215 0.00007727 0.00000919
2702.260000 -0.72657500 -0.40907032 0.04477770 -0.00108631 0.00098553 0.00033574
2702.332000 -0.72657490 -0.40907034 0.04477758 -0.00032613 -0.00001771 -0.00092321
2702.396000 -0.72657495 -0.40907031 0.04477763 0.00010299 0.00051718 -0.00000369
2702.460000 -0.72657495 -0.40907033 0.04477763 0.00058061 -0.00039402 -0.00086494
2702.528000 -0.72657520 -0.40907056 0.04477761 -0.00055326 -0.00042558 0.00028022
2702.600000 -0.72657519 -0.40907055 0.04477761 0.00043824 0.00146667 -0.00013470
2702.660000 -0.72657508 -0.40907046 0.04477759 0.00007090 -0.00031027 -0.00019281
2702.764000 -0.72657502 -0.40907029 0.04477759 0.00108742 0.00149737 0.00030428
2702.828000 -0.72657513 -0.40907006 0.04477765 -0.00071850 0.00051020 -0.00052584
2702.900000 -0.72657511 -0.40907002 0.04477766 0.00097382 0.00197790 -0.00026633
2703.004000 -0.72657509 -0.40906999 0.04477769 0.00063482 -0.00014896 -0.00057371
2703.060000 -0.72657502 -0.40906988 0.04477769 -0.00026710 0.00001128 0.00295246
2703.132000 -0.72657502 -0.40907001 0.04477770 0.00022195 -0.00125857 0.00084531
2703.196000 -0.72657527 -0.40907007 0.04477780 0.00033264 0.00014044 -0.00017235
2703.260000 -0.72657526 -0.40907004 0.04477780 0.00009591 0.00005254 0.00050499
2703.328000 -0.72657521 -0.40906992 0.04477783 -0.00093336 -0.00098627 0.00102733
2703.400000 -0.72657521 -0.40906990 0.04477784 0.00094368 0.00144424 0.00097083
2703.460000 -0.72657515 -0.40906993 0.04477784 0.00046094 0.00041734 0.00057022
2703.532000 -0.72657515 -0.40906993 0.04477782 0.00121035 0.00023686 0.00013200
2703.596000 -0.72657522 -0.40906996 0.04477783 -0.00149331 -0.00095790 0.00172877
2703.660000 -0.72657522 -0.40906990 0.04477784 0.00117011 -0.00113000 -0.00164810
2703.736000 -0.72657534 -0.40907005 0.04477787 0.00007326 0.00102101 0.00027489
2703.796000 -0.72657541 -0.40906998 0.04477783 0.00074220 -0.00028173 0.00009312
2703.860000 -0.72657541 -0.40906996 0.04477782 0.00130674 -0.00133033 0.00103534
2703.932000 -0.72657539 -0.40906995 0.04477783 0.00189252 0.00087044 0.00018581
2703.996000 -0.72657551 -0.40906982 0.04477790 0.00108888 -0.00100116 -0.00135638
2704.100000 -0.72657549 -0.40906981 0.04477790 0.00064379 0.00025420 -0.00019695
2704.164000 -0.72657548 -0.40906980 0.04477791 -0.00033885 0.00035571 0.00008838
2704.228000 -0.72657554 -0.40906969 0.04477794 0.00050234 0.00038336 -0.00074133
2704.296000 -0.72657558 -0.40906973 0.04477791 0.00134375 -0.00152494 0.00007614
2704.360000 -0.72657558 -0.40906971 0.04477791 -0.00022281 -0.00104772 0.00100137
2704.428000 -0.72657559 -0.40906966 0.04477789 0.00025939 0.00045660 0.00024667
2704.528000 -0.72657563 -0.40906957 0.04477792 -0.00031985 0.00023347 -0.00087809
2704.632000 -0.72657561 -0.40906954 0.04477793 0.00058582 -0.00118975 -0.00096830
2704.700000 -0.72657582 -0.40906938 0.04477797 -0.00013090 -0.00014538 -0.00076398
2704.768000 -0.72657588 -0.40906927 0.04477799 0.00055332 0.00011270 -0.00014288
2704.828000 -0.72657588 -0.40906926 0.04477798 0.00065587 0.00005651 -0.00013294
2704.896000 -0.72657587 -0.40906919 0.04477804 -0.00116777 -0.00200322 0.00077394
2704.964000 -0.72657572 -0.40906934 0.04477799 -0.00046750 -0.00055214 -0.00150680
2705.028000 -0.72657569 -0.40906932 0.04477793 0.00123794 0.00081741 0.00076206
2705.100000 -0.72657568 -0.40906930 0.04477793 -0.00106208 -0.00032580 -0.00162480
2705.232000 -0.72657565 -0.40906925 0.04477793 -0.00032791 0.00209979 -0.00067762
2705.336000 -0.72657551 -0.40906922 0.04477794 -0.00119562 -0.00073840 0.00087613
2705.404000 -0.72657550 -0.40906920 0.04477793 0.00223712 -0.00094931 -0.00036030
2705.500000 -0.72657551 -0.40906916 0.04477794 0.00055133 0.00052804 -0.00038580
2705.564000 -0.72657547 -0.40906905 0.04477797 0.00086811 -0.00035974 -0.00021425
2705.700000 -0.72657550 -0.40906887 0.04477796 -0.00021668 -0.00099328 -0.00020384
2705.800000 -0.72657555 -0.40906878 0.04477800 -0.00041305 0.00091811 -0.00068857
2705.900000 -0.72657551 -0.40906874 0.04477803 -0.00123289 -0.00085623 0.00062217
2705.960000 -0.72657550 -0.40906872 0.04477803 -0.00055973 0.00045957 0.00010435
2706.028000 -0.72657530 -0.40906885 0.04477790 0.00253076 0.00058955 -0.00081722
2706.132000 -0.72657528 -0.40906882 0.04477790 0.00031439 0.00037457 -0.00082487
2706.196000 -0.72657529 -0.40906885 0.04477789 0.00243871 -0.00024754 0.00169409
2706.260000 -0.72657532 -0.40906874 0.04477792 0.00273215 0.00167749 0.00043969
2706.328000 -0.72657535 -0.40906882 0.04477786 0.00104486 0.00030650 0.00101594
2706.428000 -0.72657541 -0.40906871 0.04477788 -0.00064843 0.00037532 -0.00030486
2706.500000 -0.72657541 -0.40906869 0.04477787 -0.00183974 -0.00106898 0.00056892
2706.600000 -0.72657520 -0.40906878 0.04477777 -0.00016178 0.00009971 -0.00043984
2706.660000 -0.72657520 -0.40906875 0.04477777 -0.00088613 0.00078264 -0.00166521
2706.732000 -0.72657519 -0.40906872 0.04477777 0.00091930 0.00172205 0.00003980
2706.800000 -0.72657520 -0.40906868 0.04477774 -0.00024649 0.00085275 0.00018591
2706.864000 -0.72657520 -0.40906867 0.04477774 0.00172299 -0.00029282 -0.00051511
2706.932000 -0.72657515 -0.40906907 0.04477773 -0.00106764 0.00072629 -0.00172162
2706.996000 -0.72657519 -0.40906915 0.04477775 -0.00052323 0.00032673 -0.00012344
2707.060000 -0.72657511 -0.40906916 0.04477776 0.00083762 0.00012739 -0.00016145
2707.132000 -0.72657510 -0.40906917 0.04477774 0.00146320 0.00037970 -0.00107505
2707.236000 -0.72657506 -0.40906911 0.04477775 0.00050697 -0.00039390 -0.00000377
2707.300000 -0.72657506 -0.40906910 0.04477775 -0.00086479 -0.00085074 0.00021759
2707.364000 -0.72657505 -0.40906911 0.04477773 0.00120959 0.00124847 -0.00081927
2707.428000 -0.72657514 -0.40906913 0.04477767 -0.00011207 -0.00057672 -0.00017285
2707.496000 -0.72657512 -0.40906909 0.04477768 0.00198592 0.00045606 -0.00035620
2707.564000 -0.72657503 -0.40906928 0.04477760 0.00287129 0.00035029 -0.00022376
2707.664000 -0.72657501 -0.40906926 0.04477760 -0.00092344 0.00055672 -0.00131927
2707.728000 -0.72657500 -0.40906925 0.04477760 0.00097008 -0.00086294 -0.00034192
2707.796000 -0.72657506 -0.40906926 0.04477762 -0.00139074 0.00030027 0.00045984
2707.900000 -0.72657504 -0.40906925 0.04477764 -0.00059040 -0.00057383 0.00088859
2707.996000 -0.72657496 -0.40906924 0.04477763 0.00147904 0.00002331 0.00142126
2708.064000 -0.72657490 -0.40906931 0.04477759 0.00077563 -0.00023757 -0.00115233
2708.128000 -0.72657496 -0.40906937 0.04477758 0.00089779 0.00162219 0.00198400
2708.196000 -0.72657495 -0.40906938 0.04477759 -0.00000166 0.00000789 0.00073795
2708.300000 -0.72657489 -0.40906927 0.04477762 0.00075488 -0.00044128 0.00233479
2708.360000 -0.72657493 -0.40906919 0.04477763 0.00052208 0.00044345 0.00034277
2708.432000 -0.72657487 -0.40906918 0.04477762 -0.00142913 0.00129282 0.00004480
2708.496000 -0.72657488 -0.40906916 0.04477763 0.00007201 0.00311948 0.00004605
2708.560000 -0.72657487 -0.40906915 0.04477763 -0.00059537 -0.00024537 0.00042161
2708.632000 -0.72657486 -0.40906913 0.04477761 0.00083518 0.00002532 -0.00077633
2708.696000 -0.72657490 -0.40906907 0.04477763 0.00100354 0.00062550 -0.00061816
2708.764000 -0.72657490 -0.40906906 0.04477763 -0.00074305 0.00119855 -0.00071952
2708.864000 -0.72657482 -0.40906916 0.04477748 -0.00062335 -0.00064360 0.00042707
2708.932000 -0.72657463 -0.40906929 0.04477737 0.00008008 0.00072092 -0.00025915
2708.996000 -0.72657433 -0.40906985 0.04477709 0.00098310 0.00356476 -0.00441456
2709.060000 -0.72657413 -0.40907027 0.04477680 -0.00035044 -0.00290043 0.00412406
2709.128000 -0.72657410 -0.40907036 0.04477677 0.00269498 -0.00191154 0.00053600
2709.236000 -0.72657420 -0.40907030 0.04477685 -0.00015039 0.00014836 -0.00188378
2709.300000 -0.72657415 -0.40907025 0.04477687 0.00196351 0.00003640 0.00225098
2709.364000 -0.72657417 -0.40907007 0.04477696 -0.00097642 -0.00013983 -0.00218086
2709.432000 -0.72657412 -0.40907004 0.04477683 -0.00268171 -0.00088233 -0.00130726
2709.500000 -0.72657397 -0.40906984 0.04477677 0.00153494 0.00003125 0.00003803
2709.556000 -0.72657396 -0.40906975 0.04477674 -0.00117030 -0.00026695 -0.00006211
2709.668000 -0.72657396 -0.40906973 0.04477675 0.00020243 -0.00009645 0.00141673
2709.764000 -0.72657394 -0.40906972 0.04477675 -0.00107588 0.00142176 -0.00079430
2709.828000 -0.72657375 -0.40906972 0.04477672 0.00155255 0.00160602 -0.00032144
2709.928000 -0.72657371 -0.40906970 0.04477671 0.00094583 -0.00056072 0.00028787
2710.000000 -0.72657376 -0.40906965 0.04477673 0.00009002 -0.00015697 0.00006042
2710.060000 -0.72657379 -0.40906960 0.04477670 -0.00013334 -0.00091377 0.00124615
2710.136000 -0.72657372 -0.40906955 0.04477670 -0.00295974 -0.00152488 -0.00184045
2710.196000 -0.72657373 -0.40906953 0.04477670 0.00013232 0.00187144 -0.00004515
2710.260000 -0.72657372 -0.40906958 0.04477669 -0.00131317 -0.00031297 0.00112633
2710.328000 -0.72657372 -0.40906948 0.04477671 -0.00217802 -0.00044234 -0.00060308
2710.404000 -0.72657436 -0.40906955 0.04477689 0.00195517 0.00290162 0.00017010
2710.496000 -0.72657497 -0.40906969 0.04477718 -0.00050750 0.00109584 -0.00015659
2710.560000 -0.72657506 -0.40906971 0.04477722 -0.00025301 -0.00366985 -0.00018577
2710.628000 -0.72657475 -0.40906975 0.04477709 0.00055074 0.00043590 -0.00243117
2710.696000 -0.72657474 -0.40906971 0.04477709 0.00066042 -0.00103631 -0.00038428
2710.760000 -0.72657475 -0.40906969 0.04477710 -0.00256652 -0.00052951 0.00149687
2710.832000 -0.72657476 -0.40906967 0.04477710 -0.00092258 -0.00005117 0.00038078
2710.896000 -0.72657478 -0.40906973 0.04477708 0.00107014 -0.00008038 0.00150720
2710.964000 -0.72657492 -0.40906980 0.04477710 0.00054967 0.00100280 0.00243985
2711.028000 -0.72657492 -0.40906982 0.04477709 -0.00162967 -0.00074383 -0.00030324
2711.100000 -0.72657491 -0.40906980 0.04477709 -0.00015370 0.00168006 0.00104503
2711.160000 -0.72657513 -0.40906954 0.04477717 0.00009072 0.00124313 0.00120050
2711.232000 -0.72657504 -0.40906951 0.04477704 0.00084560 0.00115869 0.00001833
2711.300000 -0.72657487 -0.40906944 0.04477691 -0.00049683 0.00263366 0.00205835
2711.364000 -0.72657485 -0.40906934 0.04477689 0.00008961 -0.00004641 0.00040803
2711.428000 -0.72657486 -0.40906934 0.04477689 -0.00061331 0.00017359 -0.00056785
2711.528000 -0.72657486 -0.40906934 0.04477689 -0.00048769 0.00037303 -0.00018221
2711.592000 -0.72657479 -0.40906932 0.04477686 -0.00061105 -0.00007061 0.00044541
2711.656000 -0.72657473 -0.40906930 0.04477685 0.00182255 -0.00195547 -0.00100066
2711.732000 -0.72657474 -0.40906929 0.04477685 0.00181622 0.00223015 0.00136617
2711.796000 -0.72657473 -0.40906927 0.04477685 0.00227963 -0.00249675 -0.00199615
2711.860000 -0.72657474 -0.40906927 0.04477685 0.00090365 -0.00163536 -0.00036561
2711.928000 -0.72657473 -0.40906926 0.04477685 0.00063277 0.00186834 -0.00094506
2712.000000 -0.72657470 -0.40906909 0.04477684 0.00137618 0.00221499 0.00035518
2712.064000 -0.72657467 -0.40906906 0.04477684 0.00080375 -0.00002003 -0.00019518
2712.132000 -0.72657471 -0.40906876 0.04477703 0.00342262 0.00000459 0.00135563
2712.196000 -0.72657473 -0.40906889 0.04477702 0.00101582 0.00187730 -0.00394330
2712.260000 -0.72657490 -0.40906942 0.04477695 0.00079133 0.00367788 0.00620461
2712.328000 -0.72657486 -0.40906942 0.04477694 -0.00085365 0.00241631 0.00492832
2712.400000 -0.72657468 -0.40906904 0.04477694 -0.00028950 0.00279041 0.00092220
2712.464000 -0.72657471 -0.40906904 0.04477690 0.00160511 0.00177140 0.00048133
2712.532000 -0.72657470 -0.40906903 0.04477690 -0.00121966 -0.00005815 -0.00142223
2712.596000 -0.72657471 -0.40906895 0.04477692 -0.00401009 0.00055491 0.00087880
2712.664000 -0.72657474 -0.40906884 0.04477694 -0.00189369 0.00071194 -0.00129416
2712.764000 -0.72657472 -0.40906881 0.04477694 -0.00037217 -0.00107275 -0.00139958
2712.832000 -0.72657481 -0.40906899 0.04477685 0.00028101 -0.00267278 0.00067251
2712.900000 -0.72657480 -0.40906881 0.04477690 0.00105654 -0.00209847 -0.00170407
2712.960000 -0.72657462 -0.40906875 0.04477687 0.00161074 -0.00128929 -0.00054235
2713.032000 -0.72657459 -0.40906871 0.04477687 0.00094344 -0.00059430 0.00057830
2713.096000 -0.72657498 -0.40906834 0.04477720 -0.00002492 -0.00064832 -0.00042689
2713.204000 -0.72657484 -0.40906831 0.04477709 -0.00111900 0.00048674 0.00054635
2713.260000 -0.72657485 -0.40906832 0.04477710 0.00099608 -0.00161616 -0.00008869
2713.332000 -0.72657497 -0.40906836 0.04477714 0.00035163 0.00024170 -0.00011856
2713.396000 -0.72657496 -0.40906843 0.04477712 0.00037498 0.00042078 -0.00054354
2713.464000 -0.72657482 -0.40906809 0.04477713 0.00134928 0.00021499 0.00093382
2713.528000 -0.72657482 -0.40906813 0.04477715 -0.00038827 0.00131862 0.00118094
2713.596000 -0.72657482 -0.40906812 0.04477715 0.00151134 0.00215309 -0.00037545
2713.664000 -0.72657483 -0.40906812 0.04477715 0.00104728 0.00162350 0.00283532
2713.764000 -0.72657466 -0.40906794 0.04477709 0.00028837 -0.00069405 -0.00123073
2713.864000 -0.72657465 -0.40906792 0.04477709 -0.00148293 0.00033416 -0.00068509
2713.936000 -0.72657464 -0.40906786 0.04477711 -0.00086487 -0.00015699 0.00016298
2714.000000 -0.72657463 -0.40906785 0.04477711 -0.00100315 0.00064145 0.00003911
2714.100000 -0.72657462 -0.40906782 0.04477711 0.00049597 0.00149466 -0.00083828
2714.164000 -0.72657438 -0.40906766 0.04477709 -0.00071923 0.00007517 0.00213534
2714.264000 -0.72657436 -0.40906758 0.04477708 0.00089452 0.00016599 0.00125506
2714.328000 -0.72657434 -0.40906752 0.04477719 0.00166535 0.00083772 0.00005120
2714.400000 -0.72657433 -0.40906750 0.04477719 0.00101920 0.00001055 -0.00009197
2714.456000 -0.72657413 -0.40906716 0.04477708 -0.00076223 0.00041365 0.00208865
